  DATE: 2018-03-30 CONTRIBUTOR: Xiaowang Zhou xzhou@sandia.gov and Lucas Hale lucas.hale@nist.gov CITATION: X. W. Zhou, R. A. Johnson, H. N. G. Wadley, Phys. Rev. B, 69, 144113(2004)
  Generated from Zhou04_create_v2.f
  Fixes precision issues with older version
    2 Mo Ni                   
 2000  0.5274378276370277E-01 2000  0.3051634341879529E-02  0.6100217049417178E+01
   42     95.940         3.8581    fcc     
  0.0000000000000000E+00 -0.2181642895388913E-01 -0.4354461784600661E-01 -0.6518574428087698E-01 -0.8673998586302734E-01
 -0.1082075201969834E+00 -0.1295885248872715E+00 -0.1508831775384158E+00 -0.1720916557549441E+00 -0.1932141371413816E+00
 -0.2142507993022535E+00 -0.2352018198420849E+00 -0.2560673763654053E+00 -0.2768476464767371E+00 -0.2975428077806077E+00
 -0.3181530378815429E+00 -0.3386785143840680E+00 -0.3591194148927075E+00 -0.3794759170119915E+00 -0.3997481983464417E+00
 -0.4199364365005867E+00 -0.4400408090789507E+00 -0.4600614936860605E+00 -0.4799986679264419E+00 -0.4998525094046196E+00
 -0.5196231957251203E+00 -0.5393109044924711E+00 -0.5589158133111960E+00 -0.5784380997858221E+00 -0.5978779415208746E+00
 -0.6172355161208793E+00 -0.6365110011903612E+00 -0.6557045743338494E+00 -0.6748164131558667E+00 -0.6938466952609406E+00
 -0.7127955982535963E+00 -0.7316632997383596E+00 -0.7504499773197564E+00 -0.7691558086023118E+00 -0.7877809711905530E+00
 -0.8063256426890062E+00 -0.8247900007021967E+00 -0.8431742228346497E+00 -0.8614784866908924E+00 -0.8797029698754475E+00
 -0.8978478499928451E+00 -0.9159133046476096E+00 -0.9338995114442654E+00 -0.9518066479873402E+00 -0.9696348918813591E+00
 -0.9873844207308480E+00 -0.1005055412140332E+01 -0.1022648043714338E+01 -0.1040162493057392E+01 -0.1057598937774020E+01
 -0.1074957555468747E+01 -0.1092238523746099E+01 -0.1109442020210602E+01 -0.1126568222466783E+01 -0.1143617308119166E+01
 -0.1160589454772278E+01 -0.1177484840030645E+01 -0.1194303641498793E+01 -0.1211046036781247E+01 -0.1227712203482533E+01
 -0.1244302319207176E+01 -0.1260816561559705E+01 -0.1277255108144644E+01 -0.1293618136566518E+01 -0.1309905824429854E+01
 -0.1326118349339178E+01 -0.1342255888899014E+01 -0.1358318620713890E+01 -0.1374306722388331E+01 -0.1390220371526864E+01
 -0.1406059745734014E+01 -0.1421825022614306E+01 -0.1437516379772267E+01 -0.1453133994812422E+01 -0.1468678045339298E+01
 -0.1484148708957421E+01 -0.1499546163271315E+01 -0.1514870585885508E+01 -0.1530122154404525E+01 -0.1545301046432892E+01
 -0.1560407439575133E+01 -0.1575441511435778E+01 -0.1590403439619349E+01 -0.1605293401730374E+01 -0.1620111575373378E+01
 -0.1634858138152887E+01 -0.1649533267673428E+01 -0.1664137141539524E+01 -0.1678669937355704E+01 -0.1693131832726492E+01
 -0.1707523005256415E+01 -0.1721843632549999E+01 -0.1736093892211768E+01 -0.1750273961846250E+01 -0.1764384019057969E+01
 -0.1778424241451453E+01 -0.1792394806631226E+01 -0.1806295892201815E+01 -0.1820127675767746E+01 -0.1833890334933543E+01
 -0.1847584047303734E+01 -0.1861208990482845E+01 -0.1874765342075401E+01 -0.1888253279685927E+01 -0.1901672980918950E+01
 -0.1915024623378996E+01 -0.1928308384670590E+01 -0.1941524442398259E+01 -0.1954672974166528E+01 -0.1967754157579924E+01
 -0.1980768170242970E+01 -0.1993715189760195E+01 -0.2006595393736125E+01 -0.2019408959775284E+01 -0.2032156065482197E+01
 -0.2044836888461393E+01 -0.2057451606317396E+01 -0.2070000396654732E+01 -0.2082483437077927E+01 -0.2094900905191508E+01
 -0.2107252978599998E+01 -0.2119539834907926E+01 -0.2131761651719817E+01 -0.2143918606640196E+01 -0.2156010877273589E+01
 -0.2168038641224522E+01 -0.2180002076097522E+01 -0.2191901359497114E+01 -0.2203736669027823E+01 -0.2215508182294176E+01
 -0.2227216076900698E+01 -0.2238860530451916E+01 -0.2250441720552355E+01 -0.2261959824806542E+01 -0.2273415020819002E+01
 -0.2284807486194261E+01 -0.2296137398536844E+01 -0.2307404935451278E+01 -0.2318610274542090E+01 -0.2329753593413803E+01
 -0.2340835069670945E+01 -0.2351854880918040E+01 -0.2362813204759616E+01 -0.2373710218800199E+01 -0.2384546100644313E+01
 -0.2395321027896485E+01 -0.2406035178161241E+01 -0.2416688729043106E+01 -0.2427281858146606E+01 -0.2437814743076268E+01
 -0.2448287561436617E+01 -0.2458700490832179E+01 -0.2469053708867479E+01 -0.2479347393147044E+01 -0.2489581721275401E+01
 -0.2499756870857074E+01 -0.2509873019496589E+01 -0.2519930344798472E+01 -0.2529929024367250E+01 -0.2539869235807448E+01
 -0.2549751156723591E+01 -0.2559574964720206E+01 -0.2569340837401819E+01 -0.2579048952372956E+01 -0.2588699487238142E+01
 -0.2598292619601903E+01 -0.2607828527068766E+01 -0.2617307387243256E+01 -0.2626729377729898E+01 -0.2636094676133220E+01
 -0.2645403460057745E+01 -0.2654655907108002E+01 -0.2663852194888515E+01 -0.2672992501003810E+01 -0.2682077003058414E+01
 -0.2691105878656851E+01 -0.2700079305403649E+01 -0.2708997460903332E+01 -0.2717860522760428E+01 -0.2726668668579459E+01
 -0.2735422075964957E+01 -0.2744120922521442E+01 -0.2752765385853443E+01 -0.2761355643565485E+01 -0.2769891873262093E+01
 -0.2778374252547795E+01 -0.2786802959027116E+01 -0.2795178170304581E+01 -0.2803500063984716E+01 -0.2811768817672048E+01
 -0.2819984608971102E+01 -0.2828147615486404E+01 -0.2836258014822481E+01 -0.2844315984583857E+01 -0.2852321702375058E+01
 -0.2860275345800613E+01 -0.2868177092465043E+01 -0.2876027119972878E+01 -0.2883825605928641E+01 -0.2891572727936860E+01
 -0.2899268663602060E+01 -0.2906913590528767E+01 -0.2914507686321506E+01 -0.2922051128584805E+01 -0.2929544094923187E+01
 -0.2936986762941180E+01 -0.2944379310243310E+01 -0.2951721914434101E+01 -0.2959014753118080E+01 -0.2966258003899774E+01
 -0.2973451844383707E+01 -0.2980596452174406E+01 -0.2987692004876396E+01 -0.2994738680094204E+01 -0.3001736655432355E+01
 -0.3008686108495375E+01 -0.3015587216887791E+01 -0.3022440158214128E+01 -0.3029245110078910E+01 -0.3036002250086665E+01
 -0.3042711755841921E+01 -0.3049373804949199E+01 -0.3055988575013028E+01 -0.3062556243637934E+01 -0.3069076988428441E+01
 -0.3075550986989076E+01 -0.3081978416924365E+01 -0.3088359455838834E+01 -0.3094694281337008E+01 -0.3100983071023415E+01
 -0.3107226002502578E+01 -0.3113423253379024E+01 -0.3119575001257280E+01 -0.3125681423741870E+01 -0.3131742698437322E+01
 -0.3137759002948159E+01 -0.3143730514878910E+01 -0.3149657411834100E+01 -0.3155539871418252E+01 -0.3161378071235897E+01
 -0.3167172188891556E+01 -0.3172922401989758E+01 -0.3178628888135028E+01 -0.3184291824931891E+01 -0.3189911389984874E+01
 -0.3195487760898502E+01 -0.3201021115277303E+01 -0.3206511630725800E+01 -0.3211959484848520E+01 -0.3217364855249989E+01
 -0.3222727919534734E+01 -0.3228048855307279E+01 -0.3233327840172150E+01 -0.3238565051733874E+01 -0.3243760667596977E+01
 -0.3248914865365983E+01 -0.3254027822645420E+01 -0.3259099717039813E+01 -0.3264130726153688E+01 -0.3269121027591571E+01
 -0.3274070798957986E+01 -0.3278980217857463E+01 -0.3283849461894524E+01 -0.3288678708673696E+01 -0.3293468135799506E+01
 -0.3298217920876478E+01 -0.3302928241509140E+01 -0.3307599275302016E+01 -0.3312231199859634E+01 -0.3316824192786517E+01
 -0.3321378431687193E+01 -0.3325894094166188E+01 -0.3330371357828026E+01 -0.3334810400277235E+01 -0.3339211399118339E+01
 -0.3343574531955865E+01 -0.3347899976394339E+01 -0.3352187910038287E+01 -0.3356438510492234E+01 -0.3360651955360706E+01
 -0.3364828422248230E+01 -0.3368968088759331E+01 -0.3373071132498534E+01 -0.3377137731070367E+01 -0.3381168062079354E+01
 -0.3385162303130022E+01 -0.3389120631826896E+01 -0.3393043225774503E+01 -0.3396930262577367E+01 -0.3400781919840016E+01
 -0.3404598375166975E+01 -0.3408379806162770E+01 -0.3412126390431927E+01 -0.3415838305578970E+01 -0.3419515729208428E+01
 -0.3423158838924825E+01 -0.3426767812332687E+01 -0.3430342827036541E+01 -0.3433884060640910E+01 -0.3437391690750323E+01
 -0.3440865894969305E+01 -0.3444306850902382E+01 -0.3447714736154079E+01 -0.3451089728328923E+01 -0.3454432005031438E+01
 -0.3457741743866152E+01 -0.3461019122437590E+01 -0.3464264318350277E+01 -0.3467477509208741E+01 -0.3470658872617506E+01
 -0.3473808586181098E+01 -0.3476926827504045E+01 -0.3480013774190870E+01 -0.3483069603846100E+01 -0.3486094494074262E+01
 -0.3489088622479880E+01 -0.3492052166667481E+01 -0.3494985304241591E+01 -0.3497888212806735E+01 -0.3500761069967440E+01
 -0.3503604053328231E+01 -0.3506417340493635E+01 -0.3509201109068176E+01 -0.3511955536656381E+01 -0.3514680800862776E+01
 -0.3517377079291887E+01 -0.3520044549548240E+01 -0.3522683389236359E+01 -0.3525293775960773E+01 -0.3527875887326005E+01
 -0.3530429900936582E+01 -0.3532955994397030E+01 -0.3535454345311875E+01 -0.3537925131285643E+01 -0.3540368529922859E+01
 -0.3542784718828050E+01 -0.3545173875605741E+01 -0.3547536177860459E+01 -0.3549871803196728E+01 -0.3552180929219076E+01
 -0.3554463733532027E+01 -0.3556720393740108E+01 -0.3558951087447844E+01 -0.3561155992259763E+01 -0.3563335285780388E+01
 -0.3565489145614247E+01 -0.3567617749365865E+01 -0.3569721274639767E+01 -0.3571799899040481E+01 -0.3573853800172531E+01
 -0.3575883155640444E+01 -0.3577888143048746E+01 -0.3579868940001961E+01 -0.3581825724104617E+01 -0.3583758672961240E+01
 -0.3585667964176354E+01 -0.3587553775354486E+01 -0.3589416284100162E+01 -0.3591255668017908E+01 -0.3593072104712248E+01
 -0.3594865771787711E+01 -0.3596636846848820E+01 -0.3598385507500103E+01 -0.3600111931346085E+01 -0.3601816295991291E+01
 -0.3603498779040249E+01 -0.3605159558097483E+01 -0.3606798810767520E+01 -0.3608416714654885E+01 -0.3610013447364104E+01
 -0.3611589186499704E+01 -0.3613144109666210E+01 -0.3614678394468147E+01 -0.3616192218510042E+01 -0.3617685759396422E+01
 -0.3619159194731810E+01 -0.3620612702120733E+01 -0.3622046459167719E+01 -0.3623460643477291E+01 -0.3624855432653977E+01
 -0.3626231004302301E+01 -0.3627587536026791E+01 -0.3628925205431971E+01 -0.3630244190122367E+01 -0.3631544667702506E+01
 -0.3632826815776913E+01 -0.3634090811950115E+01 -0.3635336833826636E+01 -0.3636565059011004E+01 -0.3637775665107743E+01
 -0.3638968829721380E+01 -0.3640144730456441E+01 -0.3641303544917451E+01 -0.3642445450708936E+01 -0.3643570625435423E+01
 -0.3644679246701437E+01 -0.3645771492111504E+01 -0.3646847539270149E+01 -0.3647907565781899E+01 -0.3648951749251280E+01
 -0.3649980267282818E+01 -0.3650993297481037E+01 -0.3651991017450466E+01 -0.3652973604795628E+01 -0.3653941237121050E+01
 -0.3654894092031258E+01 -0.3655832347130778E+01 -0.3656756180024135E+01 -0.3657665768315856E+01 -0.3658561289610466E+01
 -0.3659442921512492E+01 -0.3660310841626458E+01 -0.3661165227556892E+01 -0.3662006256908318E+01 -0.3662834107285263E+01
 -0.3663648956292254E+01 -0.3664450981533814E+01 -0.3665240360614471E+01 -0.3666017271138750E+01 -0.3666781890711178E+01
 -0.3667534396936279E+01 -0.3668274967418580E+01 -0.3669003779762607E+01 -0.3669721011572886E+01 -0.3670426840453942E+01
 -0.3671121444010302E+01 -0.3671804999846490E+01 -0.3672477685567034E+01 -0.3673139678776460E+01 -0.3673791157079292E+01
 -0.3674432298080057E+01 -0.3675063279383281E+01 -0.3675684278593489E+01 -0.3676295473315208E+01 -0.3676897041152962E+01
 -0.3677489159711279E+01 -0.3678072006594685E+01 -0.3678645759407704E+01 -0.3679210595754862E+01 -0.3679766693240687E+01
 -0.3680314229469703E+01 -0.3680853382046437E+01 -0.3681384328575414E+01 -0.3681907246661160E+01 -0.3682422313908201E+01
 -0.3682929707921064E+01 -0.3683429606304273E+01 -0.3683922186662354E+01 -0.3684407626599835E+01 -0.3684886103721240E+01
 -0.3685357795631095E+01 -0.3685822879933927E+01 -0.3686281534234260E+01 -0.3686733936136622E+01 -0.3687180263245537E+01
 -0.3687620693165532E+01 -0.3688055403501133E+01 -0.3688484571856865E+01 -0.3688908375837255E+01 -0.3689326993046828E+01
 -0.3689740601090110E+01 -0.3690149377571626E+01 -0.3690553500095905E+01 -0.3690953146267469E+01 -0.3691348493690846E+01
 -0.3691739719970562E+01 -0.3692127002711142E+01 -0.3692510519517113E+01 -0.3692890447992999E+01 -0.3693266521900144E+01
 -0.3693639586030633E+01 -0.3694009197607401E+01 -0.3694375329612877E+01 -0.3694737955029494E+01 -0.3695097046839683E+01
 -0.3695452578025875E+01 -0.3695804521570501E+01 -0.3696152850455993E+01 -0.3696497537664782E+01 -0.3696838556179299E+01
 -0.3697175878981976E+01 -0.3697509479055242E+01 -0.3697839329381531E+01 -0.3698165402943274E+01 -0.3698487672722900E+01
 -0.3698806111702842E+01 -0.3699120692865531E+01 -0.3699431389193398E+01 -0.3699738173668874E+01 -0.3700041019274392E+01
 -0.3700339898992381E+01 -0.3700634785805273E+01 -0.3700925652695500E+01 -0.3701212472645492E+01 -0.3701495218637681E+01
 -0.3701773863654498E+01 -0.3702048380678375E+01 -0.3702318742691743E+01 -0.3702584922677032E+01 -0.3702846893616675E+01
 -0.3703104628493102E+01 -0.3703358100288745E+01 -0.3703607281986034E+01 -0.3703852146567402E+01 -0.3704092667015280E+01
 -0.3704328816312098E+01 -0.3704560567440287E+01 -0.3704787893382281E+01 -0.3705010767120509E+01 -0.3705229161637402E+01
 -0.3705443049915392E+01 -0.3705652404936911E+01 -0.3705857199684389E+01 -0.3706057407140258E+01 -0.3706253000286949E+01
 -0.3706443952106893E+01 -0.3706630235582521E+01 -0.3706811823696265E+01 -0.3706988689430557E+01 -0.3707160805767827E+01
 -0.3707328145690506E+01 -0.3707490682181025E+01 -0.3707648388221817E+01 -0.3707801236795312E+01 -0.3707949200883942E+01
 -0.3708092253470137E+01 -0.3708230367536330E+01 -0.3708363516064951E+01 -0.3708491672038431E+01 -0.3708614808439202E+01
 -0.3708732898249695E+01 -0.3708845914452341E+01 -0.3708953830029572E+01 -0.3709056617963819E+01 -0.3709154251237512E+01
 -0.3709246702833084E+01 -0.3709333945732967E+01 -0.3709415952919588E+01 -0.3709492697375383E+01 -0.3709564152082781E+01
 -0.3709630290024214E+01 -0.3709691084182112E+01 -0.3709746507538907E+01 -0.3709796533077031E+01 -0.3709841133778914E+01
 -0.3709880282626989E+01 -0.3709913952603684E+01 -0.3709942116691434E+01 -0.3709964747872668E+01 -0.3709981819129818E+01
 -0.3709993303445315E+01 -0.3709999173801591E+01 -0.3709999403181075E+01 -0.3709993964566202E+01 -0.3709982830939400E+01
 -0.3709965975283101E+01 -0.3709943370579738E+01 -0.3709914989811740E+01 -0.3709880805961538E+01 -0.3709840792011566E+01
 -0.3709794920944253E+01 -0.3709743165742031E+01 -0.3709685499387331E+01 -0.3709621894862585E+01 -0.3709552325150223E+01
 -0.3709476763232677E+01 -0.3709395182092379E+01 -0.3709307554711758E+01 -0.3709213854073248E+01 -0.3709114053159278E+01
 -0.3709008124952280E+01 -0.3708896042434686E+01 -0.3708777778588927E+01 -0.3708653306397434E+01 -0.3708522598842638E+01
 -0.3708385628906969E+01 -0.3708242369572861E+01 -0.3708092793822744E+01 -0.3707936874639049E+01 -0.3707774585004208E+01
 -0.3707605897900651E+01 -0.3707430786310810E+01 -0.3707249223217117E+01 -0.3707061181602001E+01 -0.3706866634447896E+01
 -0.3706665554737231E+01 -0.3706457915452439E+01 -0.3706243689575950E+01 -0.3706022850090196E+01 -0.3705795369977608E+01
 -0.3705561222220618E+01 -0.3705320379801655E+01 -0.3705072815703153E+01 -0.3704818502907542E+01 -0.3704557414397252E+01
 -0.3704289523154717E+01 -0.3704014802162365E+01 -0.3703733224402630E+01 -0.3703444762857943E+01 -0.3703149390510734E+01
 -0.3702847080343434E+01 -0.3702537805338476E+01 -0.3702221538478290E+01 -0.3701898252745307E+01 -0.3701567921121959E+01
 -0.3701230516590678E+01 -0.3700886012133893E+01 -0.3700534380734037E+01 -0.3700175595373541E+01 -0.3699809629034836E+01
 -0.3699436454700354E+01 -0.3699056045352525E+01 -0.3698668373973780E+01 -0.3698273413546552E+01 -0.3697871137053271E+01
 -0.3697461517476369E+01 -0.3697044527798276E+01 -0.3696620141001425E+01 -0.3696188330068246E+01 -0.3695749067981170E+01
 -0.3695302327722629E+01 -0.3694848082275055E+01 -0.3694386304620878E+01 -0.3693916967742529E+01 -0.3693440044622441E+01
 -0.3692955508243043E+01 -0.3692463331586768E+01 -0.3691963487636046E+01 -0.3691455949373310E+01 -0.3690940689780989E+01
 -0.3690417681841515E+01 -0.3689886898537321E+01 -0.3689348312850836E+01 -0.3688801897764492E+01 -0.3688247626260721E+01
 -0.3687685471321954E+01 -0.3687116673196690E+01 -0.3686541316127160E+01 -0.3685959840309321E+01 -0.3685372259296233E+01
 -0.3684778586590625E+01 -0.3684178835645164E+01 -0.3683573019862715E+01 -0.3682961152596600E+01 -0.3682343247150860E+01
 -0.3681719316780505E+01 -0.3681089374691776E+01 -0.3680453434042392E+01 -0.3679811507941805E+01 -0.3679163609451448E+01
 -0.3678509751584984E+01 -0.3677849947308552E+01 -0.3677184209541009E+01 -0.3676512551154181E+01 -0.3675834984973093E+01
 -0.3675151523776217E+01 -0.3674462180295711E+01 -0.3673766967217650E+01 -0.3673065897182263E+01 -0.3672358982784172E+01
 -0.3671646236572613E+01 -0.3670927671051679E+01 -0.3670203298680543E+01 -0.3669473131873680E+01 -0.3668737183001103E+01
 -0.3667995464388584E+01 -0.3667247988317874E+01 -0.3666494767026927E+01 -0.3665735812710122E+01 -0.3664971137518477E+01
 -0.3664200753559871E+01 -0.3663424672899258E+01 -0.3662642907558882E+01 -0.3661855469518489E+01 -0.3661062370715538E+01
 -0.3660263623045417E+01 -0.3659459238361644E+01 -0.3658649228476081E+01 -0.3657833605159138E+01 -0.3657012380139978E+01
 -0.3656185565106719E+01 -0.3655353171706643E+01 -0.3654515211546385E+01 -0.3653671696192149E+01 -0.3652822637169893E+01
 -0.3651968045965533E+01 -0.3651107934025136E+01 -0.3650242312755117E+01 -0.3649371193522435E+01 -0.3648494587654779E+01
 -0.3647612506440762E+01 -0.3646724961130115E+01 -0.3645831962933872E+01 -0.3644933523024553E+01 -0.3644029652536362E+01
 -0.3643120362565364E+01 -0.3642205664169668E+01 -0.3641285568369617E+01 -0.3640360086147962E+01 -0.3639429228450050E+01
 -0.3638493006183997E+01 -0.3637551430220872E+01 -0.3636604511394871E+01 -0.3635652260503492E+01 -0.3634694688307718E+01
 -0.3633731805532177E+01 -0.3632763622865331E+01 -0.3631790150959639E+01 -0.3630811400431726E+01 -0.3629827381862558E+01
 -0.3628838105797612E+01 -0.3627843582747036E+01 -0.3626843823185823E+01 -0.3625838837553976E+01 -0.3624828636256668E+01
 -0.3623813229664410E+01 -0.3622792628113214E+01 -0.3621766841904751E+01 -0.3620735881306516E+01 -0.3619699756551986E+01
 -0.3618658477840776E+01 -0.3617612055338803E+01 -0.3616560499178439E+01 -0.3615503819458667E+01 -0.3614442026245234E+01
 -0.3613375129570813E+01 -0.3612303139435148E+01 -0.3611226065805209E+01 -0.3610143918615345E+01 -0.3609056707767432E+01
 -0.3607964443131024E+01 -0.3606867134543501E+01 -0.3605764791810219E+01 -0.3604657424704653E+01 -0.3603545042968546E+01
 -0.3602427656312053E+01 -0.3601305274413886E+01 -0.3600177906921457E+01 -0.3599045563451021E+01 -0.3597908253587820E+01
 -0.3596765986886215E+01 -0.3595618772869839E+01 -0.3594466621031729E+01 -0.3593309540834462E+01 -0.3592147541710299E+01
 -0.3590980633061321E+01 -0.3589808824259558E+01 -0.3588632124647134E+01 -0.3587450543536394E+01 -0.3586264090210044E+01
 -0.3585072773921278E+01 -0.3583876603893913E+01 -0.3582675589322523E+01 -0.3581469739372562E+01 -0.3580259063180503E+01
 -0.3579043569853962E+01 -0.3577823268471827E+01 -0.3576598168084384E+01 -0.3575368277713453E+01 -0.3574133606352498E+01
 -0.3572894162966769E+01 -0.3571649956493415E+01 -0.3570400995841616E+01 -0.3569147289892698E+01 -0.3567888847500268E+01
 -0.3566625677490323E+01 -0.3565357788661377E+01 -0.3564085189784584E+01 -0.3562807889603853E+01 -0.3561525896835971E+01
 -0.3560239220170720E+01 -0.3558947868270991E+01 -0.3557651849772913E+01 -0.3556351173285954E+01 -0.3555045847393049E+01
 -0.3553735880650710E+01 -0.3552421281589139E+01 -0.3551102058712348E+01 -0.3549778220498265E+01 -0.3548449775398854E+01
 -0.3547116731840220E+01 -0.3545779098222728E+01 -0.3544436882921104E+01 -0.3543090094284555E+01 -0.3541738740636875E+01
 -0.3540382830276549E+01 -0.3539022371476870E+01 -0.3537657372486042E+01 -0.3536287841527284E+01 -0.3534913786798945E+01
 -0.3533535216474603E+01 -0.3532152138703173E+01 -0.3530764561609013E+01 -0.3529372493292023E+01 -0.3527975941827756E+01
 -0.3526574915267517E+01 -0.3525169421638465E+01 -0.3523759468943717E+01 -0.3522345065162450E+01 -0.3520926218249997E+01
 -0.3519502936137954E+01 -0.3518075226734275E+01 -0.3516643097923376E+01 -0.3515206557566224E+01 -0.3513765613500449E+01
 -0.3512320273540431E+01 -0.3510870545477399E+01 -0.3509416437079534E+01 -0.3507957956092054E+01 -0.3506495110237322E+01
 -0.3505027907214930E+01 -0.3503556354701802E+01 -0.3502080460352282E+01 -0.3500600231798231E+01 -0.3499115676649120E+01
 -0.3497626802492117E+01 -0.3496133616892190E+01 -0.3494636127392188E+01 -0.3493134341512935E+01 -0.3491628266753327E+01
 -0.3490117910590412E+01 -0.3488603280479487E+01 -0.3487084383854182E+01 -0.3485561228126552E+01 -0.3484033820687169E+01
 -0.3482502168905198E+01 -0.3480966280128498E+01 -0.3479426161683696E+01 -0.3477881820876285E+01 -0.3476333264990700E+01
 -0.3474780501290413E+01 -0.3473223537018008E+01 -0.3471662379395274E+01 -0.3470097035623285E+01 -0.3468527512882483E+01
 -0.3466953818332762E+01 -0.3465375959113555E+01 -0.3463793942343909E+01 -0.3462207775122573E+01 -0.3460617464528076E+01
 -0.3459023017618810E+01 -0.3457424441433109E+01 -0.3455821742989333E+01 -0.3454214929285941E+01 -0.3452604007301578E+01
 -0.3450988983995150E+01 -0.3449369866305900E+01 -0.3447746661153494E+01 -0.3446119375438092E+01 -0.3444488016040428E+01
 -0.3442852589821886E+01 -0.3441213103624578E+01 -0.3439569564271419E+01 -0.3437921978566206E+01 -0.3436270353293684E+01
 -0.3434614695219638E+01 -0.3432955011090950E+01 -0.3431291307635680E+01 -0.3429623591563148E+01 -0.3427951869563995E+01
 -0.3426276148310262E+01 -0.3424596434455463E+01 -0.3422912734634660E+01 -0.3421225055464526E+01 -0.3419533403543426E+01
 -0.3417837785451487E+01 -0.3416138207750661E+01 -0.3414434676984809E+01 -0.3412727199679757E+01 -0.3411015782343379E+01
 -0.3409300431465656E+01 -0.3407581153518751E+01 -0.3405857954957078E+01 -0.3404130842217367E+01 -0.3402399821718735E+01
 -0.3400664899862755E+01 -0.3398926083033519E+01 -0.3397183377597709E+01 -0.3395436789904662E+01 -0.3393686326286440E+01
 -0.3391931993057892E+01 -0.3390173796516718E+01 -0.3388411742943545E+01 -0.3386645838601977E+01 -0.3384876089738675E+01
 -0.3383102502583408E+01 -0.3381325083349133E+01 -0.3379543838232039E+01 -0.3377758773411629E+01 -0.3375969895050775E+01
 -0.3374177209295778E+01 -0.3372380722276438E+01 -0.3370580440106111E+01 -0.3368776368881775E+01 -0.3366968514684085E+01
 -0.3365156883577447E+01 -0.3363341481610064E+01 -0.3361522314814009E+01 -0.3359699389205278E+01 -0.3357872710783855E+01
 -0.3356042285533771E+01 -0.3354208119423160E+01 -0.3352370218404324E+01 -0.3350528588413789E+01 -0.3348683235372364E+01
 -0.3346834165185197E+01 -0.3344981383741844E+01 -0.3343124896916311E+01 -0.3341264710567127E+01 -0.3339400830537386E+01
 -0.3337533262654822E+01 -0.3335662012731850E+01 -0.3333787086565633E+01 -0.3331908489938131E+01 -0.3330026228616166E+01
 -0.3328140308351464E+01 -0.3326250734880728E+01 -0.3324357513925679E+01 -0.3322460651193120E+01 -0.3320560152374982E+01
 -0.3318656023148389E+01 -0.3316748269175704E+01 -0.3314836896104588E+01 -0.3312921909568050E+01 -0.3311003315184500E+01
 -0.3309081118557809E+01 -0.3307155325277357E+01 -0.3305225940918083E+01 -0.3303292971040543E+01 -0.3301356421190957E+01
 -0.3299416296901270E+01 -0.3297472603689191E+01 -0.3295525347058256E+01 -0.3293574532497871E+01 -0.3291620165483369E+01
 -0.3289662251476057E+01 -0.3287700795923270E+01 -0.3285735804258414E+01 -0.3283767281901028E+01 -0.3281795234256821E+01
 -0.3279819666717734E+01 -0.3277840584661977E+01 -0.3275857993454091E+01 -0.3273871898444981E+01 -0.3271882304971985E+01
 -0.3269889218358903E+01 -0.3267892643916057E+01 -0.3265892586940338E+01 -0.3263889052715246E+01 -0.3261882046510950E+01
 -0.3259871573584324E+01 -0.3257857639178999E+01 -0.3255840248525411E+01 -0.3253819406840848E+01 -0.3251795119329492E+01
 -0.3249767391182471E+01 -0.3247736227577900E+01 -0.3245701633680931E+01 -0.3243663614643797E+01 -0.3241622175605857E+01
 -0.3239577321693641E+01 -0.3237529058020897E+01 -0.3235477389688635E+01 -0.3233422321785171E+01 -0.3231363859386171E+01
 -0.3229302007554696E+01 -0.3227236771341246E+01 -0.3225168155783808E+01 -0.3223096165907889E+01 -0.3221020806726569E+01
 -0.3218942083240545E+01 -0.3216860000438164E+01 -0.3214774563295478E+01 -0.3212685776776274E+01 -0.3210593645832132E+01
 -0.3208498175402453E+01 -0.3206399370414508E+01 -0.3204297235783480E+01 -0.3202191776412503E+01 -0.3200082997192707E+01
 -0.3197970903003255E+01 -0.3195855498711388E+01 -0.3193736789172466E+01 -0.3191614779230003E+01 -0.3189489473715718E+01
 -0.3187360877449567E+01 -0.3185228995239784E+01 -0.3183093831882926E+01 -0.3180955392163906E+01 -0.3178813680856041E+01
 -0.3176668702721085E+01 -0.3174520462509270E+01 -0.3172368964959346E+01 -0.3170214214798622E+01 -0.3168056216743000E+01
 -0.3165894975497019E+01 -0.3163730495753888E+01 -0.3161562782195529E+01 -0.3159391839492615E+01 -0.3157217672304604E+01
 -0.3155040285279781E+01 -0.3152859683055293E+01 -0.3150675870257190E+01 -0.3148488851500458E+01 -0.3146298631389057E+01
 -0.3144105214515965E+01 -0.3141908605463203E+01 -0.3139708808801881E+01 -0.3137505829092233E+01 -0.3135299670883648E+01
 -0.3133090338714712E+01 -0.3130877837113245E+01 -0.3128662170596332E+01 -0.3126443343670360E+01 -0.3124221360831056E+01
 -0.3121996226563521E+01 -0.3119767945342268E+01 -0.3117536521631249E+01 -0.3115301959883902E+01 -0.3113064264543175E+01
 -0.3110823440041569E+01 -0.3108579490801167E+01 -0.3106332421233670E+01 -0.3104082235740432E+01 -0.3101828938712495E+01
 -0.3099572534530621E+01 -0.3097313027565327E+01 -0.3095050422176917E+01 -0.3092784722715517E+01 -0.3090515933521113E+01
 -0.3088244058923573E+01 -0.3085969103242691E+01 -0.3083691070788215E+01 -0.3081409965859879E+01 -0.3079125792747440E+01
 -0.3076838555730705E+01 -0.3074548259079570E+01 -0.3072254907054046E+01 -0.3069958503904294E+01 -0.3067659053870658E+01
 -0.3065356561183695E+01 -0.3063051030064210E+01 -0.3060742464723279E+01 -0.3058430869362296E+01 -0.3056116248172986E+01
 -0.3053798605337453E+01 -0.3051477945028197E+01 -0.3049154271408157E+01 -0.3046827588630730E+01 -0.3044497900839815E+01
 -0.3042165212169832E+01 -0.3039829526745759E+01 -0.3037490848683159E+01 -0.3035149182088214E+01 -0.3032804531057750E+01
 -0.3030456899679271E+01 -0.3028106292030988E+01 -0.3025752712181848E+01 -0.3023396164191564E+01 -0.3021036652110643E+01
 -0.3018674179980419E+01 -0.3016308751833078E+01 -0.3013940371691690E+01 -0.3011569043570236E+01 -0.3009194771473639E+01
 -0.3006817559397793E+01 -0.3004437411329586E+01 -0.3002054331246939E+01 -0.2999668323118822E+01 -0.2997279390905293E+01
 -0.2994887538557519E+01 -0.2992492770017809E+01 -0.2990095089219636E+01 -0.2987694500087674E+01 -0.2985291006537816E+01
 -0.2982884612477207E+01 -0.2980475321804272E+01 -0.2978063138408738E+01 -0.2975648066171668E+01 -0.2973230108965486E+01
 -0.2970809270654000E+01 -0.2968385555092434E+01 -0.2965958966127453E+01 -0.2963529507597190E+01 -0.2961097183331271E+01
 -0.2958661997150843E+01 -0.2956223952868604E+01 -0.2953783054288818E+01 -0.2951339305207357E+01 -0.2948892709411712E+01
 -0.2946443270681031E+01 -0.2943990992786135E+01 -0.2941535879489554E+01 -0.2939077934545542E+01 -0.2936617161700108E+01
 -0.2934153564691046E+01 -0.2931687147247950E+01 -0.2929217913092249E+01 -0.2926745865937223E+01 -0.2924271009488039E+01
 -0.2921793347441766E+01 -0.2919312883487403E+01 -0.2916829621305908E+01 -0.2914343564570218E+01 -0.2911854716945273E+01
 -0.2909363082088046E+01 -0.2906868663647558E+01 -0.2904371465264914E+01 -0.2901871490573318E+01 -0.2899368743198099E+01
 -0.2896863226756740E+01 -0.2894354944858896E+01 -0.2891843901106419E+01 -0.2889330099093384E+01 -0.2886813542406112E+01
 -0.2884294234623189E+01 -0.2881772179315498E+01 -0.2879247380046236E+01 -0.2876719840370937E+01 -0.2874189563837498E+01
 -0.2871656553986203E+01 -0.2869120814349742E+01 -0.2866582348453233E+01 -0.2864041159814256E+01 -0.2861497251942861E+01
 -0.2858950628341596E+01 -0.2856401292505536E+01 -0.2853849247922295E+01 -0.2851294498072058E+01 -0.2848737046427594E+01
 -0.2846176896454288E+01 -0.2843614051610153E+01 -0.2841048515345860E+01 -0.2838480291104756E+01 -0.2835909382322885E+01
 -0.2833335792429017E+01 -0.2830759524844659E+01 -0.2828180582984083E+01 -0.2825598970254349E+01 -0.2823014690055321E+01
 -0.2820427745779690E+01 -0.2817838140813000E+01 -0.2815245878533663E+01 -0.2812650962312986E+01 -0.2810053395515184E+01
 -0.2807453181497408E+01 -0.2804850323609765E+01 -0.2802244825195336E+01 -0.2799636689590198E+01 -0.2797025920123442E+01
 -0.2794412520117203E+01 -0.2791796492886665E+01 -0.2789177841740099E+01 -0.2786556569978869E+01 -0.2783932680897457E+01
 -0.2781306177783486E+01 -0.2778677063917740E+01 -0.2776045342574176E+01 -0.2773411017019956E+01 -0.2770774090515457E+01
 -0.2768134566314293E+01 -0.2765492447663343E+01 -0.2762847737802756E+01 -0.2760200439965985E+01 -0.2757550557379794E+01
 -0.2754898093264287E+01 -0.2752243050832925E+01 -0.2749585433292538E+01 -0.2746925243843357E+01 -0.2744262485679023E+01
 -0.2741597161986607E+01 -0.2738929275946636E+01 -0.2736258830733104E+01 -0.2733585829513495E+01 -0.2730910275448803E+01
 -0.2728232171693545E+01 -0.2725551521395784E+01 -0.2722868327697148E+01 -0.2720182593732848E+01 -0.2717494322631692E+01
 -0.2714803517516111E+01 -0.2712110181502172E+01 -0.2709414317699597E+01 -0.2706715929211781E+01 -0.2704015019135811E+01
 -0.2701311590562488E+01 -0.2698605646576334E+01 -0.2695897190255622E+01 -0.2693186224672386E+01 -0.2690472752892441E+01
 -0.2687756777975404E+01 -0.2685038302974703E+01 -0.2682317330937606E+01 -0.2679593864905230E+01 -0.2676867907912559E+01
 -0.2674139462988469E+01 -0.2671408533155733E+01 -0.2668675121431050E+01 -0.2665939230825058E+01 -0.2663200864342343E+01
 -0.2660460024981470E+01 -0.2657716715734993E+01 -0.2654970939589470E+01 -0.2652222699525483E+01 -0.2649471998517654E+01
 -0.2646718839534661E+01 -0.2643963225539258E+01 -0.2641205159488286E+01 -0.2638444644332695E+01 -0.2635681683017554E+01
 -0.2632916278482077E+01 -0.2630148433659630E+01 -0.2627378151477754E+01 -0.2624605434858177E+01 -0.2621830286716832E+01
 -0.2619052709963871E+01 -0.2616272707503688E+01 -0.2613490282234927E+01 -0.2610705437050497E+01 -0.2607918174837602E+01
 -0.2605128498477737E+01 -0.2602336410846718E+01 -0.2599541914814692E+01 -0.2596745013246157E+01 -0.2593945708999973E+01
 -0.2591144004929377E+01 -0.2588339903882004E+01 -0.2585533408699899E+01 -0.2582724522219531E+01 -0.2579913247271810E+01
 -0.2577099586682106E+01 -0.2574283543270255E+01 -0.2571465119850586E+01 -0.2568644319231925E+01 -0.2565821144217619E+01
 -0.2562995597605545E+01 -0.2560167682188124E+01 -0.2557337400752345E+01 -0.2554504756079772E+01 -0.2551669750946559E+01
 -0.2548832388123470E+01 -0.2545992670375885E+01 -0.2543150600463824E+01 -0.2540306181141956E+01 -0.2537459415159617E+01
 -0.2534610305260821E+01 -0.2531758854184275E+01 -0.2528905064663398E+01 -0.2526048939426329E+01 -0.2523190481195942E+01
 -0.2520329692689871E+01 -0.2517466576620507E+01 -0.2514601135695025E+01 -0.2511733372615392E+01 -0.2508863290078385E+01
 -0.2505990890775603E+01 -0.2503116177393479E+01 -0.2500239152613296E+01 -0.2497359819111204E+01 -0.2494478179558230E+01
 -0.2491594236620287E+01 -0.2488707992958200E+01 -0.2485819451227709E+01 -0.2482928614079489E+01 -0.2480035484159157E+01
 -0.2477140064107294E+01 -0.2474242356559453E+01 -0.2471342364146171E+01 -0.2468440089492986E+01 -0.2465535535220452E+01
 -0.2462628703944148E+01 -0.2459719598274689E+01 -0.2456808220817751E+01 -0.2453894574174068E+01 -0.2450978660939458E+01
 -0.2448060483704831E+01 -0.2445140045056203E+01 -0.2442217347574705E+01 -0.2439292393836603E+01 -0.2436365186413307E+01
 -0.2433435727871382E+01 -0.2430504020772565E+01 -0.2427570067673774E+01 -0.2424633871127125E+01 -0.2421695433679940E+01
 -0.2418754757874762E+01 -0.2415811846249368E+01 -0.2412866701336782E+01 -0.2409919325665284E+01 -0.2406969721758425E+01
 -0.2404017892135045E+01 -0.2401063839309271E+01 -0.2398107565790543E+01 -0.2395149074083623E+01 -0.2392188366688601E+01
 -0.2389225446100916E+01 -0.2386260314811360E+01 -0.2383292975306099E+01 -0.2380323430066677E+01 -0.2377351681570031E+01
 -0.2374377732288506E+01 -0.2371401584689861E+01 -0.2368423241237287E+01 -0.2365442704389415E+01 -0.2362459976600328E+01
 -0.2359475060319578E+01 -0.2356487957992186E+01 -0.2353498672058667E+01 -0.2350507204955038E+01 -0.2347513559112821E+01
 -0.2344517736959065E+01 -0.2341519740916354E+01 -0.2338519573402818E+01 -0.2335517236832144E+01 -0.2332512733613589E+01
 -0.2329506066151993E+01 -0.2326497236847784E+01 -0.2323486248096994E+01 -0.2320473102291275E+01 -0.2317457801817900E+01
 -0.2314440349059779E+01 -0.2311420746395473E+01 -0.2308398996199205E+01 -0.2305375100840862E+01 -0.2302349062686017E+01
 -0.2299320884095938E+01 -0.2296290567427593E+01 -0.2293258115033664E+01 -0.2290223529262567E+01 -0.2287186812458445E+01
 -0.2284147966961195E+01 -0.2281106995106467E+01 -0.2278063899225685E+01 -0.2275018681646055E+01 -0.2271971344690565E+01
 -0.2268921890678015E+01 -0.2265870321923009E+01 -0.2262816640735976E+01 -0.2259760849423182E+01 -0.2256702950286732E+01
 -0.2253642945624589E+01 -0.2250580837730577E+01 -0.2247516628894400E+01 -0.2244450321401645E+01 -0.2241381917533794E+01
 -0.2238311419568237E+01 -0.2235238829778284E+01 -0.2232164150433167E+01 -0.2229087383798056E+01 -0.2226008532134073E+01
 -0.2222927597698292E+01 -0.2219844582743758E+01 -0.2216759489519494E+01 -0.2213672320270511E+01 -0.2210583077237818E+01
 -0.2207491762658430E+01 -0.2204398378765383E+01 -0.2201302927787741E+01 -0.2198205411950606E+01 -0.2195105833475123E+01
 -0.2192004194578502E+01 -0.2188900497474019E+01 -0.2185794744371022E+01 -0.2182686937474950E+01 -0.2179577078987342E+01
 -0.2176465171105839E+01 -0.2173351216024198E+01 -0.2170235215932306E+01 -0.2167117173016182E+01 -0.2163997089457989E+01
 -0.2160874967436048E+01 -0.2157750809124845E+01 -0.2154624616695037E+01 -0.2151496392313462E+01 -0.2148366138143154E+01
 -0.2145233856343349E+01 -0.2142099549069492E+01 -0.2138963218473250E+01 -0.2135824866702519E+01 -0.2132684495901437E+01
 -0.2129542108210384E+01 -0.2126397705766007E+01 -0.2123251290701211E+01 -0.2120102865145183E+01 -0.2116952431223390E+01
 -0.2113799991057599E+01 -0.2110645546765875E+01 -0.2107489100462598E+01 -0.2104330654258470E+01 -0.2101170210260521E+01
 -0.2098007770572123E+01 -0.2094843337292993E+01 -0.2091676912519207E+01 -0.2088508498343210E+01 -0.2085338096853814E+01
 -0.2082165710136224E+01 -0.2078991340272029E+01 -0.2075814989339226E+01 -0.2072636659412215E+01 -0.2069456352561822E+01
 -0.2066274070855298E+01 -0.2063089816356324E+01 -0.2059903591125036E+01 -0.2056715397218015E+01 -0.2053525236688308E+01
 -0.2050333111585429E+01 -0.2047139023955375E+01 -0.2043942975840625E+01 -0.2040744969280159E+01 -0.2037545006309462E+01
 -0.2034343088960524E+01 -0.2031139219261864E+01 -0.2027933399238524E+01 -0.2024725630912093E+01 -0.2021515916300695E+01
 -0.2018304257419015E+01 -0.2015090656278301E+01 -0.2011875114886368E+01 -0.2008657635247613E+01 -0.2005438219363019E+01
 -0.2002216869230164E+01 -0.1998993586843232E+01 -0.1995768374193016E+01 -0.1992541233266930E+01 -0.1989312166049014E+01
 -0.1986081174519948E+01 -0.1982848260657048E+01 -0.1979613426434293E+01 -0.1976376673822312E+01 -0.1973138004788405E+01
 -0.1969897421296549E+01 -0.1966654925307404E+01 -0.1963410518778321E+01 -0.1960164203663346E+01 -0.1956915981913242E+01
 -0.1953665855475476E+01 -0.1950413826294243E+01 -0.1947159896310470E+01 -0.1943904067461818E+01 -0.1940646341682695E+01
 -0.1937386720904263E+01 -0.1934125207054445E+01 -0.1930861802057933E+01 -0.1927596507836195E+01 -0.1924329326307480E+01
 -0.1921060259386834E+01 -0.1917789308986097E+01 -0.1914516477013917E+01 -0.1911241765375760E+01 -0.1907965175973905E+01
 -0.1904686710707467E+01 -0.1901406371472395E+01 -0.1898124160161481E+01 -0.1894840078664368E+01 -0.1891554128867559E+01
 -0.1888266312654421E+01 -0.1884976631905194E+01 -0.1881685088497002E+01 -0.1878391684303848E+01 -0.1875096421196641E+01
 -0.1871799301043184E+01 -0.1868500325708192E+01 -0.1865199497053297E+01 -0.1861896816937052E+01 -0.1858592287214945E+01
 -0.1855285909739396E+01 -0.1851977686359777E+01 -0.1848667618922405E+01 -0.1845355709270560E+01 -0.1842041959244491E+01
 -0.1838726370681411E+01 -0.1835408945415523E+01 -0.1832089685278009E+01 -0.1828768592097051E+01 -0.1825445667697831E+01
 -0.1822120913902532E+01 -0.1818794332530363E+01 -0.1815465925397546E+01 -0.1812135694317334E+01 -0.1808803641100014E+01
 -0.1805469767552920E+01 -0.1802134075480429E+01 -0.1798796566683974E+01 -0.1795457242962057E+01 -0.1792116106110239E+01
 -0.1788773157921166E+01 -0.1785428400184558E+01 -0.1782081834687234E+01 -0.1778733463213099E+01 -0.1775383287543166E+01
 -0.1772031309455557E+01 -0.1768677530725506E+01 -0.1765321953125373E+01 -0.1761964578424642E+01 -0.1758605408389940E+01
 -0.1755244444785027E+01 -0.1751881689370817E+01 -0.1748517143905377E+01 -0.1745150810143935E+01 -0.1741782689838885E+01
 -0.1738412784739798E+01 -0.1735041096593423E+01 -0.1731667627143699E+01 -0.1728292378131751E+01 -0.1724915351295915E+01
 -0.1721536548371721E+01 -0.1718155971091917E+01 -0.1714773621186468E+01 -0.1711389500382565E+01 -0.1708003610404630E+01
 -0.1704615952974319E+01 -0.1701226529810534E+01 -0.1697835342629428E+01 -0.1694442393144405E+01 -0.1691047683066135E+01
 -0.1687651214102553E+01 -0.1684252987958871E+01 -0.1680853006337577E+01 -0.1677451270938452E+01 -0.1674047783458564E+01
 -0.1670642545592280E+01 -0.1667235559031270E+01 -0.1663826825464522E+01 -0.1660416346578333E+01 -0.1657004124056322E+01
 -0.1653590159579444E+01 -0.1650174454825980E+01 -0.1646757011471556E+01 -0.1643337831189143E+01 -0.1639916915649064E+01
 -0.1636494266519000E+01 -0.1633069885463997E+01 -0.1629643774146467E+01 -0.1626215934226205E+01 -0.1622786367360377E+01
 -0.1619355075203546E+01 -0.1615922059407662E+01 -0.1612487321622076E+01 -0.1609050863493543E+01 -0.1605612686666225E+01
 -0.1602172792781706E+01 -0.1598731183478988E+01 -0.1595287860394500E+01 -0.1591842825162105E+01 -0.1588396079413105E+01
 -0.1584947624776244E+01 -0.1581497462877716E+01 -0.1578045595341176E+01 -0.1574592023787732E+01 -0.1571136749835963E+01
 -0.1567679775101921E+01 -0.1564221101199133E+01 -0.1560760729738612E+01 -0.1557298662328855E+01 -0.1553834900575856E+01
 -0.1550369446083114E+01 -0.1546902300451624E+01 -0.1543433465279896E+01 -0.1539962942163956E+01 -0.1536490732697353E+01
 -0.1533016838471159E+01 -0.1529541261073980E+01 -0.1526064002091961E+01 -0.1522585063108787E+01 -0.1519104445705695E+01
 -0.1515622151461475E+01 -0.1512138181952471E+01 -0.1508652538752597E+01 -0.1505165223433334E+01 -0.1501676237563738E+01
 -0.1498185582710443E+01 -0.1494693260437673E+01 -0.1491199272307240E+01 -0.1487703619878552E+01 -0.1484206304708613E+01
 -0.1480707328352040E+01 -0.1477206692361062E+01 -0.1473704398285515E+01 -0.1470200447672867E+01 -0.1466694842068206E+01
 -0.1463187583014253E+01 -0.1459678672051370E+01 -0.1456168110717554E+01 -0.1452655900548454E+01 -0.1449142043077368E+01
 -0.1445626539835257E+01 -0.1442109392350735E+01 -0.1438590602150090E+01 -0.1435070170757277E+01 -0.1431548099693934E+01
 -0.1428024390479377E+01 -0.1424499044630606E+01 -0.1420972063662323E+01 -0.1417443449086917E+01 -0.1413913202414483E+01
 -0.1410381325152820E+01 -0.1406847818807444E+01 -0.1403312684881580E+01 -0.1399775924876181E+01 -0.1396237540289923E+01
 -0.1392697532619211E+01 -0.1389155903358190E+01 -0.1385612653998742E+01 -0.1382067786030498E+01 -0.1378521300940835E+01
 -0.1374973200214887E+01 -0.1371423485335548E+01 -0.1367872157783475E+01 -0.1364319219037099E+01 -0.1360764670572615E+01
 -0.1357208513864007E+01 -0.1353650750383035E+01 -0.1350091381599250E+01 -0.1346530408979996E+01 -0.1342967833990413E+01
 -0.1339403658093443E+01 -0.1335837882749835E+01 -0.1332270509418149E+01 -0.1328701539554760E+01 -0.1325130974613863E+01
 -0.1321558816047478E+01 -0.1317985065305460E+01 -0.1314409723835488E+01 -0.1310832793083085E+01 -0.1307254274491619E+01
 -0.1303674169502302E+01 -0.1300092479554198E+01 -0.1296509206084227E+01 -0.1292924350527178E+01 -0.1289337914315695E+01
 -0.1285749898880295E+01 -0.1282160305649373E+01 -0.1278569136049201E+01 -0.1274976391503930E+01 -0.1271382073435605E+01
 -0.1267786183264160E+01 -0.1264188722407426E+01 -0.1260589692281133E+01 -0.1256989094298917E+01 -0.1253386929872329E+01
 -0.1249783200410821E+01 -0.1246177907321778E+01 -0.1242571052010496E+01 -0.1238962635880207E+01 -0.1235352660332063E+01
 -0.1231741126765163E+01 -0.1228128036576539E+01 -0.1224513391161166E+01 -0.1220897191911970E+01 -0.1217279440219830E+01
 -0.1213660137473579E+01 -0.1210039285060012E+01 -0.1206416884363888E+01 -0.1202792936767938E+01 -0.1199167443652861E+01
 -0.1195540406397341E+01 -0.1191911826378035E+01 -0.1188281704969594E+01 -0.1184650043544651E+01 -0.1181016843473841E+01
 -0.1177382106125792E+01 -0.1173745832867134E+01 -0.1170108025062505E+01 -0.1166468684074556E+01 -0.1162827811263948E+01
 -0.1159185407989361E+01 -0.1155541475607502E+01 -0.1151896015473099E+01 -0.1148249028938913E+01 -0.1144600517355740E+01
 -0.1140950482072417E+01 -0.1137298924435818E+01 -0.1133645845790870E+01 -0.1129991247480544E+01 -0.1126335130845872E+01
 -0.1122677497225939E+01 -0.1119018347957895E+01 -0.1115357684376959E+01 -0.1111695507816416E+01 -0.1108031819607627E+01
 -0.1104366621080031E+01 -0.1100699913561150E+01 -0.1097031698376590E+01 -0.1093361976850047E+01 -0.1089690750303313E+01
 -0.1086018020056276E+01 -0.1082343787426924E+01 -0.1078668053731352E+01 -0.1074990820283764E+01 -0.1071312088396473E+01
 -0.1067631859379917E+01 -0.1063950134542643E+01 -0.1060266915191334E+01 -0.1056582202630791E+01 -0.1052895998163953E+01
 -0.1049208303091891E+01 -0.1045519118713817E+01 -0.1041828446327083E+01 -0.1038136287227195E+01 -0.1034442642707800E+01
 -0.1030747514060704E+01 -0.1027050902575872E+01 -0.1023352809541427E+01 -0.1019653236243657E+01 -0.1015952183967022E+01
 -0.1012249653994154E+01 -0.1008545647605859E+01 -0.1004840166081122E+01 -0.1001133210697114E+01 -0.9974247827291923E+00
 -0.9937148834509015E+00 -0.9900035141339846E+00 -0.9862906760483827E+00 -0.9825763704622331E+00 -0.9788605986418826E+00
 -0.9751433618518847E+00 -0.9714246613550065E+00 -0.9677044984122273E+00 -0.9639828742827489E+00 -0.9602597902239932E+00
 -0.9565352474916106E+00 -0.9528092473394794E+00 -0.9490817910197095E+00 -0.9453528797826534E+00 -0.9416225148768962E+00
 -0.9378906975492709E+00 -0.9341574290448583E+00 -0.9304227106069887E+00 -0.9266865434772430E+00 -0.9229489288954635E+00
 -0.9192098680997535E+00 -0.9154693623264760E+00 -0.9117274128102673E+00 -0.9079840207840321E+00 -0.9042391874789484E+00
 -0.9004929141244723E+00 -0.8967452019483448E+00 -0.8929960521765887E+00 -0.8892454660335105E+00 -0.8854934447417174E+00
 -0.8817399895221026E+00 -0.8779851015938637E+00 -0.8742287821744935E+00 -0.8704710324797929E+00 -0.8667118537238720E+00
 -0.8629512471191503E+00 -0.8591892138763585E+00 -0.8554257552045524E+00 -0.8516608723111039E+00 -0.8478945664017103E+00
 -0.8441268386803948E+00 -0.8403576903495155E+00 -0.8365871226097603E+00 -0.8328151366601567E+00 -0.8290417336980734E+00
 -0.8252669149192197E+00 -0.8214906815176568E+00 -0.8177130346857915E+00 -0.8139339756143837E+00 -0.8101535054925582E+00
 -0.8063716255077854E+00 -0.8025883368459138E+00 -0.7988036406911458E+00 -0.7950175382260602E+00 -0.7912300306316031E+00
 -0.7874411190871009E+00 -0.7836508047702577E+00 -0.7798590888571552E+00 -0.7760659725222671E+00 -0.7722714569384496E+00
 -0.7684755432769498E+00 -0.7646782327074118E+00 -0.7608795263978758E+00 -0.7570794255147846E+00 -0.7532779312229761E+00
 -0.7494750446857089E+00 -0.7456707670646372E+00 -0.7418650995198364E+00 -0.7380580432097943E+00 -0.7342495992914179E+00
 -0.7304397689200368E+00 -0.7266285532494013E+00 -0.7228159534316971E+00 -0.7190019706175332E+00 -0.7151866059559552E+00
 -0.7113698605944454E+00 -0.7075517356789283E+00 -0.7037322323537654E+00 -0.6999113517617672E+00 -0.6960890950441967E+00
 -0.6922654633407583E+00 -0.6884404577896212E+00 -0.6846140795274060E+00 -0.6807863296891959E+00 -0.6769572094085363E+00
 -0.6731267198174401E+00 -0.6692948620463878E+00 -0.6654616372243333E+00 -0.6616270464787036E+00 -0.6577910909354078E+00
 -0.6539537717188290E+00 -0.6501150899518365E+00 -0.6462750467557894E+00 -0.6424336432505343E+00 -0.6385908805544070E+00
 -0.6347467597842410E+00 -0.6309012820553671E+00 -0.6270544484816173E+00 -0.6232062601753243E+00 -0.6193567182473289E+00
 -0.6155058238069846E+00 -0.6116535779621505E+00 -0.6077999818192046E+00 -0.6039450364830385E+00 -0.6000887430570689E+00
 -0.5962311026432341E+00 -0.5923721163419950E+00 -0.5885117852523419E+00 -0.5846501104718037E+00 -0.5807870930964329E+00
 -0.5769227342208251E+00 -0.5730570349381130E+00 -0.5691899963399734E+00 -0.5653216195166266E+00 -0.5614519055568398E+00
 -0.5575808555479351E+00 -0.5537084705757821E+00 -0.5498347517248088E+00 -0.5459597000780051E+00 -0.5420833167169133E+00
 -0.5382056027216501E+00 -0.5343265591708901E+00 -0.5304461871418830E+00 -0.5265644877104474E+00 -0.5226814619509758E+00
 -0.5187971109364408E+00 -0.5149114357383927E+00 -0.5110244374269659E+00 -0.5071361170708785E+00 -0.5032464757374346E+00
 -0.4993555144925333E+00 -0.4954632344006621E+00 -0.4915696365249077E+00 -0.4876747219269520E+00 -0.4837784916670793E+00
 -0.4798809468041754E+00 -0.4759820883957349E+00 -0.4720819174978604E+00 -0.4681804351652610E+00 -0.4642776424512644E+00
 -0.4603735404078131E+00 -0.4564681300854698E+00 -0.4525614125334116E+00 -0.4486533887994495E+00 -0.4447440599300134E+00
 -0.4408334269701646E+00 -0.4369214909635962E+00 -0.4330082529526315E+00 -0.4290937139782374E+00 -0.4251778750800104E+00
 -0.4212607372961977E+00 -0.4173423016636831E+00 -0.4134225692180002E+00 -0.4095015409933290E+00 -0.4055792180225061E+00
 -0.4016556013370163E+00 -0.3977306919670005E+00 -0.3938044909412614E+00 -0.3898769992872639E+00 -0.3859482180311287E+00
 -0.3820181481976518E+00 -0.3780867908102952E+00 -0.3741541468911856E+00 -0.3702202174611284E+00 -0.3662850035396064E+00
 -0.3623485061447752E+00 -0.3584107262934727E+00 -0.3544716650012215E+00 -0.3505313232822296E+00 -0.3465897021493894E+00
 -0.3426468026142855E+00 -0.3387026256871943E+00 -0.3347571723770867E+00 -0.3308104436916314E+00 -0.3268624406371989E+00
 -0.3229131642188547E+00 -0.3189626154403756E+00 -0.3150107953042419E+00 -0.3110577048116397E+00 -0.3071033449624724E+00
 -0.3031477167553531E+00 -0.2991908211876109E+00 -0.2952326592552952E+00 -0.2912732319531728E+00 -0.2873125402747317E+00
 -0.2833505852121939E+00 -0.2793873677564986E+00 -0.2754228888973199E+00 -0.2714571496230621E+00 -0.2674901509208659E+00
 -0.2635218937766038E+00 -0.2595523791748902E+00 -0.2555816080990809E+00 -0.2516095815312754E+00 -0.2476363004523168E+00
 -0.2436617658417945E+00 -0.2396859786780521E+00 -0.2357089399381812E+00 -0.2317306505980295E+00 -0.2277511116322062E+00
 -0.2237703240140692E+00 -0.2197882887157442E+00 -0.2158050067081211E+00 -0.2118204789608515E+00 -0.2078347064423590E+00
 -0.2038476901198290E+00 -0.1998594309592293E+00 -0.1958699299252940E+00 -0.1918791879815405E+00 -0.1878872060902548E+00
 -0.1838939852125143E+00 -0.1798995263081743E+00 -0.1759038303358737E+00 -0.1719068982530450E+00 -0.1679087310159016E+00
 -0.1639093295794536E+00 -0.1599086948975037E+00 -0.1559068279226499E+00 -0.1519037296062924E+00 -0.1478994008986230E+00
 -0.1438938427486438E+00 -0.1398870561041569E+00 -0.1358790419117687E+00 -0.1318698011169014E+00 -0.1278593346637830E+00
 -0.1238476434954522E+00 -0.1198347285537683E+00 -0.1158205907794025E+00 -0.1118052311118468E+00 -0.1077886504894133E+00
 -0.1037708498492394E+00 -0.9975183012728793E-01 -0.9573159225834403E-01 -0.9171013717602826E-01 -0.8768746581278775E-01
 -0.8366357909990828E-01 -0.7963847796750441E-01 -0.7561216334453134E-01 -0.7158463615878717E-01 -0.6755589733690825E-01
 -0.6352594780437240E-01 -0.5949478848550862E-01 -0.5546242030348696E-01 -0.5142884418033383E-01 -0.4739406103692061E-01
 -0.4335807179297783E-01 -0.3932087736708820E-01 -0.3528247867669296E-01 -0.3124287663809603E-01 -0.2720207216645911E-01
 -0.2316006617580802E-01 -0.1911685957903340E-01 -0.1507245328789812E-01 -0.1102684821302781E-01 -0.6980045263923849E-02
 -0.2932045348963981E-02  0.1117150624608311E-02  0.5167541750660823E-02  0.9219127124193368E-02  0.1327190584131483E-01
  0.1732587699925835E-01  0.2138103969636404E-01  0.2543739303209304E-01  0.2949493610701032E-01  0.3355366802279652E-01
  0.3761358788223980E-01  0.4167469478922295E-01  0.4573698784874676E-01  0.4980046616690377E-01  0.5386512885088579E-01
  0.5793097500898928E-01  0.6199800375060267E-01  0.6606621418620723E-01  0.7013560542738019E-01  0.7420617658677993E-01
  0.7827792677816257E-01  0.8235085511636960E-01  0.8642496071732408E-01  0.9050024269802963E-01  0.9457670017658026E-01
  0.9865433227213444E-01  0.1027331381049387E+00  0.1068131167963173E+00  0.1108942674686534E+00  0.1149765892454188E+00
  0.1054348217446418E+03  0.1054348217446418E+03  0.1054348217446418E+03  0.1054348217446418E+03  0.1054348217446418E+03
  0.1054348217446418E+03  0.1054348217446418E+03  0.1054348217446418E+03  0.1054348217446418E+03  0.1054348217446418E+03
  0.1054348217446418E+03  0.1054348217446418E+03  0.1054348217446418E+03  0.1054348217446418E+03  0.1054348217446418E+03
  0.1054348217446418E+03  0.1054348217446418E+03  0.1054348217446418E+03  0.1054348217446418E+03  0.1054348217446418E+03
  0.1054348217446418E+03  0.1054348217446418E+03  0.1054348217446418E+03  0.1054348217446418E+03  0.1054348217446418E+03
  0.1054348217446418E+03  0.1054348217446418E+03  0.1054348217446418E+03  0.1054348217446418E+03  0.1054348217446418E+03
  0.1054348217446418E+03  0.1054348217446418E+03  0.1054348217446418E+03  0.1054348217446418E+03  0.1054348217446418E+03
  0.1054348217446418E+03  0.1054348217446418E+03  0.1054348217446418E+03  0.1054348217446418E+03  0.1054348217446418E+03
  0.1054348217446418E+03  0.1054348217446418E+03  0.1054348217446418E+03  0.1054348217446418E+03  0.1054348217446418E+03
  0.1054348217446418E+03  0.1054348217446418E+03  0.1054348217446418E+03  0.1054348217446418E+03  0.1054348217446418E+03
  0.1054348217446418E+03  0.1054348217446418E+03  0.1054348217446418E+03  0.1054348217446418E+03  0.1054348217446418E+03
  0.1054348217446418E+03  0.1054348217446418E+03  0.1054348217446418E+03  0.1054348217446418E+03  0.1054348217446418E+03
  0.1054348217446418E+03  0.1054348217446418E+03  0.1054348217446418E+03  0.1054348217446418E+03  0.1054348217446418E+03
  0.1054348217446418E+03  0.1054348217446418E+03  0.1054348217446418E+03  0.1054348217446418E+03  0.1054348217446418E+03
  0.1054348217446418E+03  0.1054348217446418E+03  0.1054348217446418E+03  0.1054348217446418E+03  0.1054348217446418E+03
  0.1054348217446418E+03  0.1054348217446418E+03  0.1054348217446418E+03  0.1054348217446418E+03  0.1054348217446418E+03
  0.1054348217446418E+03  0.1054348217446418E+03  0.1054348217446418E+03  0.1054348217446418E+03  0.1054348217446418E+03
  0.1054348217446418E+03  0.1054348217446418E+03  0.1054348217446418E+03  0.1054348217446418E+03  0.1054348217446418E+03
  0.1054348217446418E+03  0.1054348217446418E+03  0.1054348217446418E+03  0.1054348217446418E+03  0.1054348217446418E+03
  0.1054348217446418E+03  0.1054348217446418E+03  0.1054348217446418E+03  0.1054348217446418E+03  0.1054348217446418E+03
  0.1054348217446418E+03  0.1054348217446418E+03  0.1054348217446418E+03  0.1054348217446418E+03  0.1054348217446418E+03
  0.1054348217446418E+03  0.1054348217446418E+03  0.1054348217446418E+03  0.1054348217446418E+03  0.1054348217446418E+03
  0.1054348217446418E+03  0.1054348217446418E+03  0.1054348217446418E+03  0.1054348217446418E+03  0.1054348217446418E+03
  0.1054348217446418E+03  0.1054348217446418E+03  0.1054348217446418E+03  0.1054348217446418E+03  0.1054348217446418E+03
  0.1054348217446418E+03  0.1054348217446418E+03  0.1054348217446418E+03  0.1054348217446418E+03  0.1054348217446418E+03
  0.1054348217446418E+03  0.1054348217446418E+03  0.1054348217446418E+03  0.1054348217446418E+03  0.1054348217446418E+03
  0.1054348217446418E+03  0.1054348217446418E+03  0.1054348217446418E+03  0.1054348217446418E+03  0.1054348217446418E+03
  0.1054348217446418E+03  0.1054348217446418E+03  0.1054348217446418E+03  0.1054348217446418E+03  0.1054348217446418E+03
  0.1054348217446418E+03  0.1054348217446418E+03  0.1054348217446418E+03  0.1054348217446418E+03  0.1054348217446418E+03
  0.1054348217446418E+03  0.1054348217446418E+03  0.1054348217446418E+03  0.1054348217446418E+03  0.1054348217446418E+03
  0.1054348217446418E+03  0.1054348217446418E+03  0.1054348217446418E+03  0.1054348217446418E+03  0.1054348217446418E+03
  0.1054348217446418E+03  0.1054348217446418E+03  0.1054348217446418E+03  0.1054348217446418E+03  0.1054348217446418E+03
  0.1054348217446418E+03  0.1054348217446418E+03  0.1054348217446418E+03  0.1054348217446418E+03  0.1053538793450047E+03
  0.1048276448878189E+03  0.1043040389309374E+03  0.1037830483452051E+03  0.1032646600670461E+03  0.1027488610981356E+03
  0.1022356385050749E+03  0.1017249794190664E+03  0.1012168710355911E+03  0.1007113006140878E+03  0.1002082554776330E+03
  0.9970772301262403E+02  0.9920969066846168E+02  0.9871414595723624E+02  0.9822107645341417E+02  0.9773046979352635E+02
  0.9724231367585836E+02  0.9675659586014180E+02  0.9627330416724764E+02  0.9579242647888043E+02  0.9531395073727477E+02
  0.9483786494489291E+02  0.9436415716412374E+02  0.9389281551698367E+02  0.9342382818481879E+02  0.9295718340800832E+02
  0.9249286948566993E+02  0.9203087477536631E+02  0.9157118769281323E+02  0.9111379671158892E+02  0.9065869036284543E+02
  0.9020585723502060E+02  0.8975528597355229E+02  0.8930696528059346E+02  0.8886088391472886E+02  0.8841703069069338E+02
  0.8797539447909128E+02  0.8753596420611755E+02  0.8709872885327970E+02  0.8666367745712186E+02  0.8623079910894985E+02
  0.8580008295455738E+02  0.8537151819395434E+02  0.8494509408109549E+02  0.8452079992361139E+02  0.8409862508254011E+02
  0.8367855897206053E+02  0.8326059105922691E+02  0.8284471086370463E+02  0.8243090795750770E+02  0.8201917196473696E+02
  0.8160949256132025E+02  0.8120185947475315E+02  0.8079626248384169E+02  0.8039269141844601E+02  0.7999113615922518E+02
  0.7959158663738381E+02  0.7919403283441913E+02  0.7879846478187015E+02  0.7840487256106752E+02  0.7801324630288497E+02
  0.7762357618749161E+02  0.7723585244410589E+02  0.7685006535075058E+02  0.7646620523400895E+02  0.7608426246878234E+02
  0.7570422747804858E+02  0.7532609073262196E+02  0.7494984275091439E+02  0.7457547409869763E+02  0.7420297538886662E+02
  0.7383233728120409E+02  0.7346355048214652E+02  0.7309660574455098E+02  0.7273149386746341E+02  0.7236820569588764E+02
  0.7200673212055604E+02  0.7164706407770110E+02  0.7128919254882813E+02  0.7093310856048917E+02  0.7057880318405782E+02
  0.7022626753550549E+02  0.6987549277517874E+02  0.6952647010757737E+02  0.6917919078113418E+02  0.6883364608799521E+02
  0.6848982736380164E+02  0.6814772598747247E+02  0.6780733338098821E+02  0.6746864100917612E+02  0.6713164037949576E+02
  0.6679632304182643E+02  0.6646268058825503E+02  0.6613070465286546E+02  0.6580038691152859E+02  0.6547171908169366E+02
  0.6514469292218078E+02  0.6481930023297390E+02  0.6449553285501560E+02  0.6417338267000221E+02  0.6385284160018034E+02
  0.6353390160814440E+02  0.6321655469663506E+02  0.6290079290833864E+02  0.6258660832568756E+02  0.6227399307066197E+02
  0.6196293930459203E+02  0.6165343922796159E+02  0.6134548508021235E+02  0.6103906913954939E+02  0.6073418372274761E+02
  0.6043082118495906E+02  0.6012897391952117E+02  0.5982863435776604E+02  0.5952979496883064E+02  0.5923244825946816E+02
  0.5893658677385981E+02  0.5864220309342821E+02  0.5834928983665105E+02  0.5805783965887617E+02  0.5776784525213746E+02
  0.5747929934497151E+02  0.5719219470223526E+02  0.5690652412492462E+02  0.5662228044999407E+02  0.5633945655017678E+02
  0.5605804533380629E+02  0.5577803974463825E+02  0.5549943276167377E+02  0.5522221739898340E+02  0.5494638670553172E+02
  0.5467193376500332E+02  0.5439885169562918E+02  0.5412713365001414E+02  0.5385677281496535E+02  0.5358776241132129E+02
  0.5332009569378181E+02  0.5305376595073901E+02  0.5278876650410896E+02  0.5252509070916423E+02  0.5226273195436736E+02
  0.5200168366120491E+02  0.5174193928402261E+02  0.5148349230986126E+02  0.5122633625829344E+02  0.5097046468126089E+02
  0.5071587116291290E+02  0.5046254931944541E+02  0.5021049279894108E+02  0.4995969528120980E+02  0.4971015047763039E+02
  0.4946185213099277E+02  0.4921479401534113E+02  0.4896896993581800E+02  0.4872437372850853E+02  0.4848099926028627E+02
  0.4823884042865917E+02  0.4799789116161678E+02  0.4775814541747773E+02  0.4751959718473854E+02  0.4728224048192257E+02
  0.4704606935743023E+02  0.4681107788938979E+02  0.4657726018550873E+02  0.4634461038292614E+02  0.4611312264806558E+02
  0.4588279117648883E+02  0.4565361019275053E+02  0.4542557395025313E+02  0.4519867673110293E+02  0.4497291284596658E+02
  0.4474827663392864E+02  0.4452476246234937E+02  0.4430236472672374E+02  0.4408107785054073E+02  0.4386089628514353E+02
  0.4364181450959056E+02  0.4342382703051674E+02  0.4320692838199611E+02  0.4299111312540446E+02  0.4277637584928308E+02
  0.4256271116920318E+02  0.4235011372763067E+02  0.4213857819379201E+02  0.4192809926354036E+02  0.4171867165922282E+02
  0.4151029012954781E+02  0.4130294944945365E+02  0.4109664441997740E+02  0.4089136986812449E+02  0.4068712064673917E+02
  0.4048389163437524E+02  0.4028167773516778E+02  0.4008047387870524E+02  0.3988027501990247E+02  0.3968107613887410E+02
  0.3948287224080869E+02  0.3928565835584352E+02  0.3908942953893987E+02  0.3889418086975922E+02  0.3869990745253970E+02
  0.3850660441597338E+02  0.3831426691308415E+02  0.3812289012110616E+02  0.3793246924136292E+02  0.3774299949914698E+02
  0.3755447614360010E+02  0.3736689444759428E+02  0.3718024970761316E+02  0.3699453724363399E+02  0.3680975239901051E+02
  0.3662589054035598E+02  0.3644294705742701E+02  0.3626091736300805E+02  0.3607979689279644E+02  0.3589958110528773E+02
  0.3572026548166198E+02  0.3554184552567041E+02  0.3536431676352260E+02  0.3518767474377448E+02  0.3501191503721648E+02
  0.3483703323676268E+02  0.3466302495734010E+02  0.3448988583577902E+02  0.3431761153070327E+02  0.3414619772242160E+02
  0.3397564011281924E+02  0.3380593442525014E+02  0.3363707640442991E+02  0.3346906181632878E+02  0.3330188644806578E+02
  0.3313554610780290E+02  0.3297003662463998E+02  0.3280535384851030E+02  0.3264149365007631E+02  0.3247845192062624E+02
  0.3231622457197094E+02  0.3215480753634154E+02  0.3199419676628729E+02  0.3183438823457417E+02  0.3167537793408389E+02
  0.3151716187771337E+02  0.3135973609827485E+02  0.3120309664839633E+02  0.3104723960042265E+02  0.3089216104631695E+02
  0.3073785709756275E+02  0.3058432388506636E+02  0.3043155755905997E+02  0.3027955428900504E+02  0.3012831026349624E+02
  0.2997782169016595E+02  0.2982808479558915E+02  0.2967909582518872E+02  0.2953085104314142E+02  0.2938334673228412E+02
  0.2923657919402067E+02  0.2909054474822911E+02  0.2894523973316935E+02  0.2880066050539149E+02  0.2865680343964432E+02
  0.2851366492878451E+02  0.2837124138368613E+02  0.2822952923315064E+02  0.2808852492381735E+02  0.2794822492007435E+02
  0.2780862570396986E+02  0.2766972377512395E+02  0.2753151565064083E+02  0.2739399786502154E+02  0.2725716697007696E+02
  0.2712101953484147E+02  0.2698555214548680E+02  0.2685076140523650E+02  0.2671664393428079E+02  0.2658319636969175E+02
  0.2645041536533903E+02  0.2631829759180593E+02  0.2618683973630595E+02  0.2605603850259967E+02  0.2592589061091218E+02
  0.2579639279785074E+02  0.2566754181632302E+02  0.2553933443545569E+02  0.2541176744051333E+02  0.2528483763281793E+02
  0.2515854182966860E+02  0.2503287686426178E+02  0.2490783958561188E+02  0.2478342685847223E+02  0.2465963556325644E+02
  0.2453646259596025E+02  0.2441390486808367E+02  0.2429195930655348E+02  0.2417062285364626E+02  0.2404989246691166E+02
  0.2392976511909616E+02  0.2381023779806712E+02  0.2369130750673725E+02  0.2357297126298949E+02  0.2345522609960224E+02
  0.2333806906417495E+02  0.2322149721905404E+02  0.2310550764125929E+02  0.2299009742241059E+02  0.2287526366865488E+02
  0.2276100350059376E+02  0.2264731405321112E+02  0.2253419247580142E+02  0.2242163593189819E+02  0.2230964159920285E+02
  0.2219820666951403E+02  0.2208732834865705E+02  0.2197700385641395E+02  0.2186723042645372E+02  0.2175800530626303E+02
  0.2164932575707702E+02  0.2154118905381081E+02  0.2143359248499115E+02  0.2132653335268830E+02  0.2122000897244853E+02
  0.2111401667322673E+02  0.2100855379731942E+02  0.2090361770029820E+02  0.2079920575094334E+02  0.2069531533117783E+02
  0.2059194383600181E+02  0.2048908867342715E+02  0.2038674726441249E+02  0.2028491704279859E+02  0.2018359545524400E+02
  0.2008277996116093E+02  0.1998246803265174E+02  0.1988265715444535E+02  0.1978334482383427E+02  0.1968452855061188E+02
  0.1958620585700990E+02  0.1948837427763634E+02  0.1939103135941362E+02  0.1929417466151709E+02  0.1919780175531384E+02
  0.1910191022430178E+02  0.1900649766404906E+02  0.1891156168213373E+02  0.1881709989808387E+02  0.1872310994331777E+02
  0.1862958946108462E+02  0.1853653610640537E+02  0.1844394754601396E+02  0.1835182145829880E+02  0.1826015553324457E+02
  0.1816894747237429E+02  0.1807819498869165E+02  0.1798789580662374E+02  0.1789804766196391E+02  0.1780864830181508E+02
  0.1771969548453315E+02  0.1763118697967088E+02  0.1754312056792192E+02  0.1745549404106516E+02  0.1736830520190935E+02
  0.1728155186423807E+02  0.1719523185275483E+02  0.1710934300302855E+02  0.1702388316143931E+02  0.1693885018512433E+02
  0.1685424194192424E+02  0.1677005631032964E+02  0.1668629117942782E+02  0.1660294444884995E+02  0.1652001402871832E+02
  0.1643749783959397E+02  0.1635539381242456E+02  0.1627369988849247E+02  0.1619241401936316E+02  0.1611153416683384E+02
  0.1603105830288236E+02  0.1595098440961634E+02  0.1587131047922255E+02  0.1579203451391662E+02  0.1571315452589288E+02
  0.1563466853727459E+02  0.1555657458006426E+02  0.1547887069609436E+02  0.1540155493697820E+02  0.1532462536406107E+02
  0.1524808004837165E+02  0.1517191707057357E+02  0.1509613452091738E+02  0.1502073049919258E+02  0.1494570311468003E+02
  0.1487105048610446E+02  0.1479677074158740E+02  0.1472286201860016E+02  0.1464932246391713E+02  0.1457615023356936E+02
  0.1450334349279827E+02  0.1443090041600964E+02  0.1435881918672789E+02  0.1428709799755045E+02  0.1421573505010246E+02
  0.1414472855499172E+02  0.1407407673176376E+02  0.1400377780885722E+02  0.1393383002355939E+02  0.1386423162196207E+02
  0.1379498085891750E+02  0.1372607599799468E+02  0.1365751531143577E+02  0.1358929708011276E+02  0.1352141959348440E+02
  0.1345388114955327E+02  0.1338668005482309E+02  0.1331981462425625E+02  0.1325328318123160E+02  0.1318708405750231E+02
  0.1312121559315415E+02  0.1305567613656372E+02  0.1299046404435714E+02  0.1292557768136881E+02  0.1286101542060034E+02
  0.1279677564317982E+02  0.1273285673832118E+02  0.1266925710328377E+02  0.1260597514333223E+02  0.1254300927169639E+02
  0.1248035790953158E+02  0.1241801948587892E+02  0.1235599243762601E+02  0.1229427520946767E+02  0.1223286625386694E+02
  0.1217176403101626E+02  0.1211096700879884E+02  0.1205047366275024E+02  0.1199028247602013E+02  0.1193039193933419E+02
  0.1187080055095635E+02  0.1181150681665100E+02  0.1175250924964560E+02  0.1169380637059330E+02  0.1163539670753588E+02
  0.1157727879586682E+02  0.1151945117829453E+02  0.1146191240480578E+02  0.1140466103262933E+02  0.1134769562619979E+02
  0.1129101475712145E+02  0.1123461700413261E+02  0.1117850095306979E+02  0.1112266519683229E+02  0.1106710833534690E+02
  0.1101182897553273E+02  0.1095682573126624E+02  0.1090209722334649E+02  0.1084764207946051E+02  0.1079345893414882E+02
  0.1073954642877123E+02  0.1068590321147268E+02  0.1063252793714927E+02  0.1057941926741462E+02  0.1052657587056615E+02
  0.1047399642155170E+02  0.1042167960193623E+02  0.1036962409986877E+02  0.1031782861004943E+02  0.1026629183369664E+02
  0.1021501247851454E+02  0.1016398925866052E+02  0.1011322089471293E+02  0.1006270611363896E+02  0.1001244364876259E+02
  0.9962432239732896E+01  0.9912670632492269E+01  0.9863157579244987E+01  0.9813891838425828E+01  0.9764872174668877E+01
  0.9716097358776491E+01  0.9667566167688413E+01  0.9619277384451015E+01  0.9571229798186707E+01  0.9523422204063531E+01
  0.9475853403264837E+01  0.9428522202959165E+01  0.9381427416270240E+01  0.9334567862247116E+01  0.9287942365834507E+01
  0.9241549757843206E+01  0.9195388874920669E+01  0.9149458559521767E+01  0.9103757659879658E+01  0.9058285029976780E+01
  0.9013039529516044E+01  0.8968020023892102E+01  0.8923225384162807E+01  0.8878654487020755E+01  0.8834306214765050E+01
  0.8790179455273114E+01  0.8746273101972680E+01  0.8702586053813931E+01  0.8659117215241748E+01  0.8615865496168075E+01
  0.8572829811944496E+01  0.8530009083334841E+01  0.8487402236488007E+01  0.8445008202910854E+01  0.8402825919441268E+01
  0.8360854328221306E+01  0.8319092376670554E+01  0.8277539017459519E+01  0.8236193208483202E+01  0.8195053912834780E+01
  0.8154120098779394E+01  0.8113390739728134E+01  0.8072864814212059E+01  0.8032541305856373E+01  0.7992419203354753E+01
  0.7952497500443762E+01  0.7912775195877361E+01  0.7873251293401632E+01  0.7833924801729506E+01  0.7794794734515696E+01
  0.7755860110331700E+01  0.7717119952640934E+01  0.7678573289773980E+01  0.7640219154903946E+01  0.7602056586021964E+01
  0.7564084625912766E+01  0.7526302322130368E+01  0.7488708726973924E+01  0.7451302897463607E+01  0.7414083895316690E+01
  0.7377050786923660E+01  0.7340202643324465E+01  0.7303538540184906E+01  0.7267057557773086E+01  0.7230758780935956E+01
  0.7194641299076046E+01  0.7158704206128205E+01  0.7122946600536512E+01  0.7087367585231257E+01  0.7051966267606004E+01
  0.7016741759494838E+01  0.6981693177149604E+01  0.6946819641217330E+01  0.6912120276717707E+01  0.6877594213020671E+01
  0.6843240583824076E+01  0.6809058527131515E+01  0.6775047185230161E+01  0.6741205704668731E+01  0.6707533236235578E+01
  0.6674028934936835E+01  0.6640691959974635E+01  0.6607521474725504E+01  0.6574516646718736E+01  0.6541676647614948E+01
  0.6509000653184673E+01  0.6476487843287043E+01  0.6444137401848586E+01  0.6411948516842081E+01  0.6379920380265520E+01
  0.6348052188121133E+01  0.6316343140394506E+01  0.6284792441033789E+01  0.6253399297928963E+01  0.6222162922891218E+01
  0.6191082531632383E+01  0.6160157343744451E+01  0.6129386582679174E+01  0.6098769475727722E+01  0.6068305254000462E+01
  0.6037993152406767E+01  0.6007832409634897E+01  0.5977822268132000E+01  0.5947961974084139E+01  0.5918250777396389E+01
  0.5888687931673060E+01  0.5859272694197908E+01  0.5830004325914486E+01  0.5800882091406517E+01  0.5771905258878344E+01
  0.5743073100135445E+01  0.5714384890565041E+01  0.5685839909116712E+01  0.5657437438283119E+01  0.5629176764080755E+01
  0.5601057176030804E+01  0.5573077967139978E+01  0.5545238433881519E+01  0.5517537876176148E+01  0.5489975597373154E+01
  0.5462550904231494E+01  0.5435263106900940E+01  0.5408111518903326E+01  0.5381095457113782E+01  0.5354214241742079E+01
  0.5327467196313981E+01  0.5300853647652653E+01  0.5274372925860123E+01  0.5248024364298796E+01  0.5221807299572996E+01
  0.5195721071510562E+01  0.5169765023144465E+01  0.5143938500694516E+01  0.5118240853549035E+01  0.5092671434246646E+01
  0.5067229598458038E+01  0.5041914704967795E+01  0.5016726115656259E+01  0.4991663195481427E+01  0.4966725312460843E+01
  0.4941911837653598E+01  0.4917222145142274E+01  0.4892655612014977E+01  0.4868211618347367E+01  0.4843889547184716E+01
  0.4819688784523996E+01  0.4795608719295990E+01  0.4771648743347426E+01  0.4747808251423115E+01  0.4724086641148123E+01
  0.4700483313009949E+01  0.4676997670340738E+01  0.4653629119299481E+01  0.4630377068854253E+01  0.4607240930764423E+01
  0.4584220119562936E+01  0.4561314052538530E+01  0.4538522149718025E+01  0.4515843833848570E+01  0.4493278530379916E+01
  0.4470825667446687E+01  0.4448484675850645E+01  0.4426254989042958E+01  0.4404136043106466E+01  0.4382127276737946E+01
  0.4360228131230357E+01  0.4338438050455085E+01  0.4316756480844187E+01  0.4295182871372599E+01  0.4273716673540369E+01
  0.4252357341354831E+01  0.4231104331312797E+01  0.4209957102382710E+01  0.4188915115986791E+01  0.4167977835983144E+01
  0.4147144728647871E+01  0.4126415262657116E+01  0.4105788909069128E+01  0.4085265141306264E+01  0.4064843435136953E+01
  0.4044523268657672E+01  0.4024304122274839E+01  0.4004185478686691E+01  0.3984166822865126E+01  0.3964247642037491E+01
  0.3944427425668329E+01  0.3924705665441104E+01  0.3905081855239850E+01  0.3885555491130783E+01  0.3866126071343857E+01
  0.3846793096254283E+01  0.3827556068363970E+01  0.3808414492282930E+01  0.3789367874710607E+01  0.3770415724417157E+01
  0.3751557552224656E+01  0.3732792870988249E+01  0.3714121195577221E+01  0.3695542042856009E+01  0.3677054931665146E+01
  0.3658659382802114E+01  0.3640354919002125E+01  0.3622141064918842E+01  0.3604017347104989E+01  0.3585983293992907E+01
  0.3568038435875009E+01  0.3550182304884134E+01  0.3532414434973856E+01  0.3514734361898637E+01  0.3497141623193956E+01
  0.3479635758156283E+01  0.3462216307822977E+01  0.3444882814952098E+01  0.3427634824002090E+01  0.3410471881111363E+01
  0.3393393534077789E+01  0.3376399332338055E+01  0.3359488826946935E+01  0.3342661570556421E+01  0.3325917117394752E+01
  0.3309255023245319E+01  0.3292674845425450E+01  0.3276176142765076E+01  0.3259758475585256E+01  0.3243421405676585E+01
  0.3227164496277485E+01  0.3210987312052318E+01  0.3194889419069430E+01  0.3178870384778998E+01  0.3162929777990774E+01
  0.3147067168851674E+01  0.3131282128823226E+01  0.3115574230658880E+01  0.3099943048381157E+01  0.3084388157258665E+01
  0.3068909133782956E+01  0.3053505555645221E+01  0.3038177001712854E+01  0.3022923052005834E+01  0.3007743287672980E+01
  0.2992637290968010E+01  0.2977604645225461E+01  0.2962644934836460E+01  0.2947757745224286E+01  0.2932942662819822E+01
  0.2918199275036803E+01  0.2903527170246902E+01  0.2888925937754668E+01  0.2874395167772271E+01  0.2859934451394078E+01
  0.2845543380571089E+01  0.2831221548085154E+01  0.2816968547523060E+01  0.2802783973250422E+01  0.2788667420385408E+01
  0.2774618484772291E+01  0.2760636762954831E+01  0.2746721852149486E+01  0.2732873350218449E+01  0.2719090855642509E+01
  0.2705373967493751E+01  0.2691722285408083E+01  0.2678135409557597E+01  0.2664612940622769E+01  0.2651154479764475E+01
  0.2637759628595867E+01  0.2624427989154082E+01  0.2611159163871786E+01  0.2597952755548581E+01  0.2584808367322231E+01
  0.2571725602639770E+01  0.2558704065228461E+01  0.2545743359066577E+01  0.2532843088354115E+01  0.2520002857483313E+01
  0.2507222271009077E+01  0.2494500933619288E+01  0.2481838450104973E+01  0.2469234425330389E+01  0.2456688464203002E+01
  0.2444200171643364E+01  0.2431769152554925E+01  0.2419395011793741E+01  0.2407077354138131E+01  0.2394815784258282E+01
  0.2382609906685788E+01  0.2370459325783175E+01  0.2358363645713371E+01  0.2346322470409191E+01  0.2334335403542805E+01
  0.2322402048495223E+01  0.2310522008325814E+01  0.2298694885741851E+01  0.2286920283068129E+01  0.2275197802216659E+01
  0.2263527044656430E+01  0.2251907611383324E+01  0.2240339102890118E+01  0.2228821119136661E+01  0.2217353259520225E+01
  0.2205935122846031E+01  0.2194566307298009E+01  0.2183246410409797E+01  0.2171975029036000E+01  0.2160751759323762E+01
  0.2149576196684635E+01  0.2138447935766816E+01  0.2127366570427772E+01  0.2116331693707264E+01  0.2105342897800833E+01
  0.2094399774033757E+01  0.2083501912835536E+01  0.2072648903714931E+01  0.2061840335235596E+01  0.2051075794992359E+01
  0.2040354869588162E+01  0.2029677144611742E+01  0.2019042204616086E+01  0.2008449633097671E+01  0.1997899012476626E+01
  0.1987389924077757E+01  0.1976921948112579E+01  0.1966494663662374E+01  0.1956107648662314E+01  0.1945760479886739E+01
  0.1935452732935666E+01  0.1925183982222519E+01  0.1914953800963243E+01  0.1904761761166785E+01  0.1894607433627074E+01
  0.1884490387916543E+01  0.1874410192381263E+01  0.1864366414137791E+01  0.1854358619071795E+01  0.1844386371838530E+01
  0.1834449235865280E+01  0.1824546773355818E+01  0.1814678545297004E+01  0.1804844111467598E+01  0.1795043030449375E+01
  0.1785274859640663E+01  0.1775539155272389E+01  0.1765835472426729E+01  0.1756163365058502E+01  0.1746522386019354E+01
  0.1736912087084914E+01  0.1727332018984987E+01  0.1717781731436904E+01  0.1708260773182186E+01  0.1698768692026581E+01
  0.1689305034883649E+01  0.1679869347822009E+01  0.1670461176116339E+01  0.1661080064302322E+01  0.1651725556235611E+01
  0.1642397195154987E+01  0.1633094523749827E+01  0.1623817084232018E+01  0.1614564418412465E+01  0.1605336067782340E+01
  0.1596131573599183E+01  0.1586950476978047E+01  0.1577792318987771E+01  0.1568656640752585E+01  0.1559542983559146E+01
  0.1550450888969177E+01  0.1541379898937847E+01  0.1532329555938021E+01  0.1523299403090549E+01  0.1514288984300727E+01
  0.1505297844401042E+01  0.1496325529300418E+01  0.1487371586139988E+01  0.1478435563455628E+01  0.1469517011347333E+01
  0.1460615481655561E+01  0.1451730528144691E+01  0.1442861706693697E+01  0.1434008575494156E+01  0.1425170695255702E+01
  0.1416347629419009E+01  0.1407538944376421E+01  0.1398744209700302E+01  0.1389962998379179E+01  0.1381194887061763E+01
  0.1372439456308876E+01  0.1363696290853365E+01  0.1354964979868031E+01  0.1346245117241550E+01  0.1337536301862497E+01
  0.1328838137911345E+01  0.1320150235160517E+01  0.1311472209282422E+01  0.1302803682165383E+01  0.1294144282237485E+01
  0.1285493644798137E+01  0.1276851412357326E+01  0.1268217234982409E+01  0.1259590770652262E+01  0.1250971685618653E+01
  0.1242359654774637E+01  0.1233754362029708E+01  0.1225155500691524E+01  0.1216562773853871E+01  0.1207975894790610E+01
  0.1199394587355247E+01  0.1190818586385782E+01  0.1182247638114437E+01  0.1173681500581858E+01  0.1165119944055313E+01
  0.1156562751450430E+01  0.1148009718755942E+01  0.1139460655460886E+01  0.1130915384983691E+01  0.1122373745102503E+01
  0.1113835588386127E+01  0.1105300782624888E+01  0.1096769211260668E+01  0.1088240773815404E+01  0.1079715386317212E+01
  0.1071192981723336E+01  0.1062673510339072E+01  0.1054156940231730E+01  0.1045643257638786E+01  0.1037132467369179E+01
  0.1028624593196841E+01  0.1020119678245412E+01  0.1011617785363098E+01  0.1003118997486611E+01  0.9946234179931120E+00
  0.9861311710390169E+00  0.9776424018845654E+00  0.9691572772029705E+00  0.9606759853730178E+00  0.9521987367539231E+00
  0.9437257639412620E+00  0.9352573220028080E+00  0.9267936886930501E+00  0.9183351646452499E+00  0.9098820735398322E+00
  0.9014347622479237E+00  0.8929936009489450E+00  0.8845589832210371E+00  0.8761313261032800E+00  0.8677110701285931E+00
  0.8592986793262356E+00  0.8508946411929719E+00  0.8424994666318320E+00  0.8341136898576309E+00  0.8257378682683283E+00
  0.8173725822814227E+00  0.8090184351346500E+00  0.8006760526502897E+00  0.7923460829624693E+00  0.7840291962069560E+00
  0.7757260841729553E+00  0.7674374599165924E+00  0.7591640573357805E+00  0.7509066307063144E+00  0.7426659541791178E+00
  0.7344428212386530E+00  0.7262380441226552E+00  0.7180524532034281E+00  0.7098868963310209E+00  0.7017422381388315E+00
  0.6936193593121341E+00  0.6855191558202979E+00  0.6774425381134912E+00  0.6693904302848003E+00  0.6613637691988373E+00
  0.6533635035879978E+00  0.6453905931176533E+00  0.6374460074216941E+00  0.6295307251099094E+00  0.6216457327488455E+00
  0.6137920238178808E+00  0.6059705976422906E+00  0.5981824583052893E+00  0.5904286135410070E+00  0.5827100736105383E+00
  0.5750278501632156E+00  0.5673829550853630E+00  0.5597763993388454E+00  0.5522091917917877E+00  0.5446823380438643E+00
  0.5371968392486580E+00  0.5297536909355326E+00  0.5223538818335960E+00  0.5149983927002374E+00  0.5076881951567978E+00
  0.5004242505339142E+00  0.4932075087290577E+00  0.4860389070787423E+00  0.4789193692479257E+00  0.4718498041389628E+00
  0.4648311048225444E+00  0.4578641474929180E+00  0.4509497904496302E+00  0.4440888731079958E+00  0.4372822150403595E+00
  0.4305306150501645E+00  0.4238348502807307E+00  0.4171956753605242E+00  0.4106138215866292E+00  0.4040899961479705E+00
  0.3976248813897407E+00  0.3912191341203612E+00  0.3848733849621443E+00  0.3785882377467439E+00  0.3723642689562890E+00
  0.3662020272109990E+00  0.3601020328039224E+00  0.3540647772832867E+00  0.3480907230828468E+00  0.3421803032004483E+00
  0.3363339209248656E+00  0.3305519496109250E+00  0.3248347325026557E+00  0.3191825826042127E+00  0.3135957825981027E+00
  0.3080745848101483E+00  0.3026192112205160E+00  0.2972298535200064E+00  0.2919066732106934E+00  0.2866498017499174E+00
  0.2814593407365069E+00  0.2763353621380491E+00  0.2712779085579151E+00  0.2662869935406862E+00  0.2613626019145490E+00
  0.2565046901691574E+00  0.2517131868674205E+00  0.2469879930896043E+00  0.2423289829081056E+00  0.2377360038912151E+00
  0.2332088776341496E+00  0.2287474003156291E+00  0.2243513432782477E+00  0.2200204536308528E+00  0.2157544548712110E+00
  0.2115530475271506E+00  0.2074159098144552E+00  0.2033426983097667E+00  0.1993330486367506E+00  0.1953865761638554E+00
  0.1915028767119741E+00  0.1876815272703770E+00  0.1839220867193177E+00  0.1802240965577374E+00  0.1765870816345703E+00
  0.1730105508821606E+00  0.1694939980503801E+00  0.1660369024400756E+00  0.1626387296345210E+00  0.1592989322276303E+00
  0.1560169505477133E+00  0.1527922133756374E+00  0.1496241386563068E+00  0.1465121342024366E+00  0.1434555983896479E+00
  0.1404539208419941E+00  0.1375064831070511E+00  0.1346126593198109E+00  0.1317718168546348E+00  0.1289833169646038E+00
  0.1262465154076591E+00  0.1235607630589822E+00  0.1209254065091032E+00  0.1183397886473193E+00  0.1158032492300036E+00
  0.1133151254334865E+00  0.1108747523912132E+00  0.1084814637149287E+00  0.1061345919997036E+00  0.1038334693126418E+00
  0.1015774276651627E+00  0.9936579946878860E-01  0.9719791797440039E-01  0.9507311769497330E-01  0.9299073481182697E-01
  0.9095010756446238E-01  0.8895057662408792E-01  0.8699148545096066E-01  0.8507218063570669E-01  0.8319201222479546E-01
  0.8135033403037426E-01  0.7954650392468966E-01  0.7777988411933508E-01  0.7604984142959285E-01  0.7435574752414548E-01
  0.7269697916044242E-01  0.7107291840604145E-01  0.6948295284622216E-01  0.6792647577821204E-01  0.6640288639235353E-01
  0.6491158994055016E-01  0.6345199789234571E-01  0.6202352807898361E-01  0.6062560482580274E-01  0.5925765907333059E-01
  0.5791912848742786E-01  0.5660945755885081E-01  0.5532809769258839E-01  0.5407450728733209E-01  0.5284815180544022E-01
  0.5164850383374470E-01  0.5047504313555880E-01  0.4932725669422968E-01  0.4820463874857991E-01  0.4710669082057880E-01
  0.4603292173557367E-01  0.4498284763541288E-01  0.4395599198478128E-01  0.4295188557106024E-01  0.4197006649803058E-01
  0.4101008017370855E-01  0.4007147929262070E-01  0.3915382381280043E-01  0.3825668092778657E-01  0.3737962503390028E-01
  0.3652223769306300E-01  0.3568410759141506E-01  0.3486483049398462E-01  0.3406400919564861E-01  0.3328125346862234E-01
  0.3251618000670337E-01  0.3176841236648956E-01  0.3103758090578374E-01  0.3032332271938708E-01  0.2962528157248128E-01
  0.2894310783178678E-01  0.2827645839467842E-01  0.2762499661643676E-01  0.2698839223579984E-01  0.2636632129897734E-01
  0.2575846608228330E-01  0.2516451501353095E-01  0.2458416259233621E-01  0.2401710930946018E-01  0.2346306156532098E-01
  0.2292173158779822E-01  0.2239283734944659E-01  0.2187610248422760E-01  0.2137125620386985E-01  0.2087803321395193E-01
  0.2039617362980824E-01  0.1992542289234487E-01  0.1946553168385098E-01  0.1901625584388698E-01  0.1857735628532467E-01
  0.1814859891061049E-01  0.1772975452832055E-01  0.1732059877006792E-01  0.1692091200782451E-01  0.1653047927171052E-01
  0.1614909016830426E-01  0.1577653879952095E-01  0.1541262368210407E-01  0.1505714766777259E-01  0.1470991786406210E-01
  0.1437074555589427E-01  0.1403944612791059E-01  0.1371583898759663E-01  0.1339974748922779E-01  0.1309099885866004E-01
  0.1278942411898799E-01  0.1249485801709307E-01  0.1220713895109726E-01  0.1192610889874134E-01  0.1165161334670093E-01
  0.1138350122085291E-01  0.1112162481750379E-01  0.1086583973558897E-01  0.1061600480985057E-01  0.1037198204500044E-01
  0.1013363655087255E-01  0.9900836478569382E-02  0.9673452957603810E-02  0.9451360034037716E-02  0.9234434609618113E-02
  0.9022556381908740E-02  0.8815607785416549E-02  0.8613473933708666E-02  0.8416042562517665E-02  0.8223203973829836E-02
  0.8034850980951191E-02  0.7850878854545867E-02  0.7671185269640159E-02  0.7495670253584550E-02  0.7324236134966983E-02
  0.7156787493468589E-02  0.6993231110653070E-02  0.6833475921681472E-02  0.6677432967941974E-02  0.6525015350585570E-02
  0.6376138184956832E-02  0.6230718555910063E-02  0.6088675473999694E-02  0.5949929832533779E-02  0.5814404365480163E-02
  0.5682023606213354E-02  0.5552713847090729E-02  0.5426403099846787E-02  0.5303021056793293E-02  0.5182499052813831E-02
  0.5064770028140643E-02  0.4949768491901699E-02  0.4837430486426290E-02  0.4727693552297022E-02  0.4620496694135757E-02
  0.4515780347112197E-02  0.4413486344162334E-02  0.4313557883905271E-02  0.4215939499246341E-02  0.4120577026654134E-02
  0.4027417576100678E-02  0.3936409501651542E-02  0.3847502372695381E-02  0.3760646945800656E-02  0.3675795137188027E-02
  0.3592899995807202E-02  0.3511915677006820E-02  0.3432797416785927E-02  0.3355501506616250E-02  0.3279985268824134E-02
  0.3206207032521155E-02  0.3134126110072803E-02  0.3063702774094716E-02  0.2994898234965735E-02  0.2927674618847506E-02
  0.2861994946200624E-02  0.2797823110787043E-02  0.2735123859148807E-02  0.2673862770553513E-02  0.2614006237396747E-02
  0.2555521446051924E-02  0.2498376358158387E-02  0.2442539692338488E-02  0.2387980906334399E-02  0.2334670179556179E-02
  0.2282578396031944E-02  0.2231677127751763E-02  0.2181938618396705E-02  0.2133335767444822E-02  0.2085842114645860E-02
  0.2039431824856621E-02  0.1994079673229213E-02  0.1949761030744408E-02  0.1906451850082440E-02  0.1864128651823921E-02
  0.1822768510973528E-02  0.1782349043799263E-02  0.1742848394980209E-02  0.1704245225056021E-02  0.1666518698171324E-02
  0.1629648470108281E-02  0.1593614676601044E-02  0.1558397921925564E-02  0.1523979267758539E-02  0.1490340222299462E-02
  0.1457462729649719E-02  0.1425329159442831E-02  0.1393922296720242E-02  0.1363225332046852E-02  0.1333221851860913E-02
  0.1303895829052805E-02  0.1275231613767494E-02  0.1247213924425475E-02  0.1219827838957072E-02  0.1193058786245279E-02
  0.1166892537772201E-02  0.1141315199464370E-02  0.1116313203732320E-02  0.1091873301699915E-02  0.1067982555618941E-02
  0.1044628331464614E-02  0.1021798291707843E-02  0.9994803882600392E-03  0.9776628555863967E-03  0.9563342039837358E-03
  0.9354832130190218E-03  0.9150989251246905E-03  0.8951706393471946E-03  0.8756879052450925E-03  0.8566405169330528E-03
  0.8380185072685443E-03  0.8198121421775532E-03  0.8020119151162284E-03  0.7846085416651562E-03  0.7675929542530667E-03
  0.7509562970069785E-03  0.7346899207257134E-03  0.7187853779738278E-03  0.7032344182931533E-03  0.6880289835290581E-03
  0.6731612032687431E-03  0.6586233903888961E-03  0.6444080367100338E-03  0.6305078087550524E-03  0.6169155436094162E-03
  0.6036242448806103E-03  0.5906270787544508E-03  0.5779173701459125E-03  0.5654885989422405E-03  0.5533343963361112E-03
  0.5414485412466668E-03  0.5298249568263462E-03  0.5184577070514032E-03  0.5073409933941647E-03  0.4964691515749798E-03
  0.4858366483920081E-03  0.4754380786269574E-03  0.4652681620249118E-03  0.4553217403465056E-03  0.4455937744906875E-03
  0.4360793416863489E-03  0.4267736327511952E-03  0.4176719494162206E-03  0.4087697017141926E-03  0.4000624054306192E-03
  0.3915456796156991E-03  0.3832152441557637E-03  0.3750669174027704E-03  0.3670966138604842E-03  0.3593003419259437E-03
  0.3516742016848833E-03  0.3442143827598240E-03  0.3369171622095562E-03  0.3297789024787559E-03  0.3227960493965552E-03
  0.3159651302228539E-03  0.3092827517412598E-03  0.3027455983974757E-03  0.2963504304820942E-03  0.2900940823566930E-03
  0.2839734607221948E-03  0.2779855429284729E-03  0.2721273753242151E-03  0.2663960716460511E-03  0.2607888114460260E-03
  0.2553028385564761E-03  0.2499354595914048E-03  0.2446840424834841E-03  0.2395460150558292E-03  0.2345188636276933E-03
  0.2296001316532668E-03  0.2247874183927977E-03  0.2200783776152425E-03  0.2154707163316801E-03  0.2109621935587700E-03
  0.2065506191115128E-03  0.2022338524246108E-03  0.1980098014017478E-03  0.1938764212921037E-03  0.1898317135934659E-03
  0.1858737249812786E-03  0.1820005462630160E-03  0.1782103113572744E-03  0.1745011962969770E-03  0.1708714182561242E-03
  0.1673192345995181E-03  0.1638429419549028E-03  0.1604408753069966E-03  0.1571114071128819E-03  0.1538529464382345E-03
  0.1506639381139049E-03  0.1475428619123580E-03  0.1444882317434899E-03  0.1414985948693673E-03  0.1385725311374237E-03
  0.1357086522316836E-03  0.1329056009415754E-03  0.1301620504479098E-03  0.1274767036256180E-03  0.1248482923628506E-03
  0.1222755768960367E-03  0.1197573451605283E-03  0.1172924121564624E-03  0.1148796193294645E-03  0.1125178339658484E-03
  0.1102059486019651E-03  0.1079428804473621E-03  0.1057275708214201E-03  0.1035589846031541E-03  0.1014361096938571E-03
  0.9935795649228530E-04  0.9732355738208159E-04  0.9533196623115512E-04  0.9338225790271685E-04  0.9147352777771294E-04
  0.8960489128836831E-04  0.8777548346258678E-04  0.8598445847894439E-04  0.8423098923202705E-04  0.8251426690786829E-04
  0.8083350056924036E-04  0.7918791675057507E-04  0.7757675906227999E-04  0.7599928780422539E-04  0.7445477958819245E-04
  0.7294252696906079E-04  0.7146183808454092E-04  0.7001203630323324E-04  0.6859245988083340E-04  0.6720246162428011E-04
  0.6584140856366171E-04  0.6450868163169942E-04  0.6320367535062716E-04  0.6192579752629139E-04  0.6067446894930513E-04
  0.5944912310308824E-04  0.5824920587862742E-04  0.5707417529580575E-04  0.5592350123114081E-04  0.5479666515178290E-04
  0.5369315985562586E-04  0.5261248921738753E-04  0.5155416794051927E-04  0.5051772131480638E-04  0.4950268497952841E-04
  0.4850860469204711E-04  0.4753503610169458E-04  0.4658154452883956E-04  0.4564770474900694E-04  0.4473310078193796E-04
  0.4383732568546801E-04  0.4295998135411569E-04  0.4210067832227080E-04  0.4125903557187222E-04  0.4043468034447359E-04
  0.3962724795759281E-04  0.3883638162524525E-04  0.3806173228256403E-04  0.3730295841441290E-04  0.3655972588789384E-04
  0.3583170778866812E-04  0.3511858426099096E-04  0.3442004235138233E-04  0.3373577585584481E-04  0.3306548517054679E-04
  0.3240887714589218E-04  0.3176566494389555E-04  0.3113556789878810E-04  0.3051831138077960E-04  0.2991362666289987E-04
  0.2932125079085414E-04  0.2874092645581650E-04  0.2817240187009875E-04  0.2761543064562446E-04  0.2706977167514445E-04
  0.2653518901613151E-04  0.2601145177729170E-04  0.2549833400763040E-04  0.2499561458801723E-04  0.2450307712519016E-04
  0.2402050984814190E-04  0.2354770550683667E-04  0.2308446127320015E-04  0.2263057864433413E-04  0.2218586334790056E-04
  0.2175012524962856E-04  0.2132317826289437E-04  0.2090484026032588E-04  0.2049493298738668E-04  0.2009328197789386E-04
  0.1969971647142404E-04  0.1931406933256636E-04  0.1893617697197892E-04  0.1856587926920715E-04  0.1820301949722463E-04
  0.1784744424865729E-04  0.1749900336365107E-04  0.1715754985934650E-04  0.1682293986092395E-04  0.1649503253418281E-04
  0.1617369001962014E-04  0.1585877736797424E-04  0.1555016247720086E-04  0.1524771603084765E-04  0.1495131143779672E-04
  0.1466082477334367E-04  0.1437613472158179E-04  0.1409712251906362E-04  0.1382367189970914E-04  0.1355566904093370E-04
  0.1329300251096655E-04  0.1303556321733461E-04  0.1278324435648411E-04  0.1253594136451424E-04  0.1229355186899823E-04
  0.1205597564186732E-04  0.1182311455333262E-04  0.1159487252682263E-04  0.1137115549491278E-04  0.1115187135622502E-04
  0.1093692993327493E-04  0.1072624293124574E-04  0.1051972389766829E-04  0.1031728818298578E-04  0.1011885290198434E-04
  0.9924336896069705E-05  0.9733660696370303E-05  0.9546746487649257E-05  0.9363518073006517E-05  0.9183900839352918E-05
  0.9007821723640617E-05  0.8835209179830485E-05  0.8665993146582215E-05  0.8500105015649326E-05  0.8337477600964323E-05
  0.8178045108398206E-05  0.8021743106179003E-05  0.7868508495955010E-05  0.7718279484488390E-05  0.7570995555964481E-05
  0.7426597444903655E-05  0.7285027109662260E-05  0.7146227706509125E-05  0.7010143564265279E-05  0.6876720159493847E-05
  0.6745904092228434E-05  0.6617643062227729E-05  0.6491885845744533E-05  0.6368582272797984E-05  0.6247683204937915E-05
  0.6129140513489970E-05  0.6012907058271468E-05  0.5898936666766754E-05  0.5787184113753026E-05  0.5677605101365340E-05
  0.5570156239591987E-05  0.5464795027190635E-05  0.5361479833015382E-05  0.5260169877746366E-05  0.5160825216012562E-05
  0.5063406718899245E-05  0.4967876056831613E-05  0.4874195682826465E-05  0.4782328816103330E-05  0.4692239426047854E-05
  0.4603892216519036E-05  0.4517252610493177E-05  0.4432286735036830E-05  0.4348961406601849E-05  0.4267244116635258E-05
  0.4187103017496961E-05  0.4108506908678806E-05  0.4031425223318194E-05  0.3955828014999798E-05  0.3881685944839162E-05
  0.3808970268841913E-05  0.3737652825532782E-05  0.3667706023848123E-05  0.3599102831286609E-05  0.3531816762312241E-05
  0.3465821867004109E-05  0.3401092719947729E-05  0.3337604409362579E-05  0.3275332526460543E-05  0.3214253155030544E-05
  0.3154342861244216E-05  0.3095578683677805E-05  0.3037938123545740E-05  0.2981399135141180E-05  0.2925940116479049E-05
  0.2871539900137138E-05  0.2818177744291035E-05  0.2765833323938721E-05  0.2714486722310507E-05  0.2664118422460584E-05
  0.2614709299036080E-05  0.2566240610219755E-05  0.2518693989842752E-05  0.2472051439663494E-05  0.2426295321809441E-05
  0.2381408351377809E-05  0.2337373589192164E-05  0.2294174434711397E-05  0.2251794619087672E-05  0.2210218198370379E-05
  0.2169429546852786E-05  0.2129413350558312E-05  0.2090154600863512E-05  0.2051638588254804E-05  0.2013850896215991E-05
  0.1976777395243826E-05  0.1940404236988951E-05  0.1904717848519333E-05  0.1869704926703782E-05  0.1835352432712746E-05
  0.1801647586634148E-05  0.1768577862201509E-05  0.1736130981632194E-05  0.1704294910573312E-05  0.1673057853152943E-05
  0.1642408247134533E-05  0.1612334759172180E-05  0.1582826280164708E-05  0.1553871920706392E-05  0.1525461006632253E-05
  0.1497583074655964E-05  0.1470227868098385E-05  0.1443385332704722E-05  0.1417045612548528E-05  0.1391199046020666E-05
  0.1365836161901356E-05  0.1340947675513654E-05  0.1316524484956597E-05  0.1292557667416224E-05  0.1269038475553011E-05
  0.1245958333963931E-05  0.1223308835717648E-05  0.1201081738961260E-05  0.1179268963597091E-05  0.1157862588028073E-05
  0.1136854845970202E-05  0.1116238123330721E-05  0.1096004955150620E-05  0.1076148022610063E-05  0.1056660150095445E-05
  0.1037534302326809E-05  0.1018763581544283E-05  0.1000341224752331E-05  0.9822606010206085E-06  0.9645152088402310E-06
  0.9470986735342486E-06  0.9300047447212466E-06  0.9132272938309324E-06  0.8967603116705834E-06  0.8805979060413416E-06
  0.8647342994033042E-06  0.8491638265883017E-06  0.8338809325595228E-06  0.8188801702168429E-06  0.8041561982470129E-06
  0.7897037790176976E-06  0.7755177765144917E-06  0.7615931543200203E-06  0.7479249736341772E-06  0.7345083913347347E-06
  0.7213386580774185E-06  0.7084111164346402E-06  0.6957211990720982E-06  0.6832644269624216E-06  0.6710364076351515E-06
  0.6590328334622108E-06  0.6472494799782035E-06  0.6356822042347975E-06  0.6243269431884424E-06  0.6131797121207934E-06
  0.6022366030911261E-06  0.5914937834200639E-06  0.5809474942040145E-06  0.5705940488596434E-06  0.5604298316977599E-06
  0.5504512965260308E-06  0.5406549652799215E-06  0.5310374266812583E-06  0.5215953349238361E-06  0.5123254083855786E-06
  0.5032244283666154E-06  0.4942892378527853E-06  0.4855167403040575E-06  0.4769038984673146E-06  0.4684477332130122E-06
  0.4601453223952569E-06  0.4519937997347490E-06  0.4439903537242045E-06  0.4361322265557027E-06  0.4284167130696059E-06
  0.4208411597245207E-06  0.4134029635879123E-06  0.4060995713469639E-06  0.3989284783392189E-06  0.3918872276026269E-06
  0.3849734089446134E-06  0.3781846580297422E-06  0.3715186554856135E-06  0.3649731260266321E-06  0.3585458375952684E-06
  0.3522346005204497E-06  0.3460372666927295E-06  0.3399517287559278E-06  0.3339759193148559E-06  0.3281078101588177E-06
  0.3223454115005945E-06  0.3166867712305439E-06  0.3111299741855375E-06  0.3056731414324532E-06  0.3003144295658623E-06
  0.2950520300197091E-06  0.2898841683926064E-06  0.2848091037865553E-06  0.2798251281587536E-06  0.2749305656862506E-06
  0.2701237721432070E-06  0.2654031342904656E-06  0.2607670692772027E-06  0.2562140240544333E-06  0.2517424748000928E-06
  0.2473509263554831E-06  0.2430379116728569E-06  0.2388019912739073E-06  0.2346417527189339E-06  0.2305558100864817E-06
  0.2265428034632482E-06  0.2226013984440261E-06  0.2187302856414997E-06  0.2149281802057003E-06  0.2111938213529016E-06
  0.2075259719037839E-06  0.2039234178306888E-06  0.2003849678137451E-06  0.1969094528057379E-06  0.1934957256054935E-06
  0.1901426604396542E-06  0.1868491525526406E-06  0.1836141178046534E-06  0.1804364922775578E-06  0.1773152318884757E-06
  0.1742493120109407E-06  0.1712377271034737E-06  0.1682794903454119E-06  0.1653736332798536E-06  0.1625192054635852E-06
  0.1597152741238409E-06  0.1569609238217572E-06  0.1542552561223910E-06  0.1515973892711822E-06  0.1489864578767090E-06
  0.1464216125996239E-06  0.1439020198476572E-06  0.1414268614765419E-06  0.1389953344967606E-06  0.1366066507859992E-06
  0.1342600368071778E-06  0.1319547333319695E-06  0.1296899951696755E-06  0.1274650909013711E-06  0.1252793026192024E-06
  0.1231319256707359E-06  0.1210222684082688E-06  0.1189496519429878E-06  0.1169134099038874E-06  0.1149128882013595E-06
  0.1129474447953487E-06  0.1110164494679911E-06  0.1091192836006464E-06  0.1072553399552407E-06  0.1054240224598234E-06
  0.1036247459982632E-06  0.1018569362040065E-06  0.1001200292578036E-06  0.9841347168933489E-07  0.9673672018266147E-07
  0.9508924138541590E-07  0.9347051172166444E-07  0.9188001720837439E-07  0.9031725327540057E-07  0.8878172458893966E-07
  0.8727294487836693E-07  0.8579043676640480E-07  0.8433373160254433E-07  0.8290236929966216E-07  0.8149589817377429E-07
  0.8011387478685501E-07  0.7875586379266638E-07  0.7742143778554405E-07  0.7611017715207159E-07  0.7482166992559180E-07
  0.7355551164350240E-07  0.7231130520727705E-07  0.7108866074515916E-07  0.6988719547747539E-07  0.6870653358452443E-07
  0.6754630607698063E-07  0.6640615066876841E-07  0.6528571165236334E-07  0.6418463977646429E-07  0.6310259212599408E-07
  0.6203923200438811E-07  0.6099422881811646E-07  0.5996725796340461E-07  0.5895800071510734E-07  0.5796614411769125E-07
  0.5699138087828662E-07  0.5603340926177280E-07  0.5509193298784918E-07  0.5416666113006047E-07  0.5325730801673335E-07
  0.5236359313379227E-07  0.5148524102941391E-07  0.5062198122048445E-07  0.4977354810082929E-07  0.4893968085117768E-07
  0.4812012335082520E-07  0.4731462409097057E-07  0.4652293608968494E-07  0.4574481680848614E-07  0.4498002807049005E-07
  0.4422833598010202E-07  0.4348951084422207E-07  0.4276332709493789E-07  0.4204956321367015E-07  0.4134800165674634E-07
  0.4065842878237592E-07  0.3998063477899908E-07  0.3931441359498049E-07  0.3865956286962494E-07  0.3801588386548962E-07
  0.3738318140196583E-07  0.3676126379010627E-07  0.3614994276867722E-07  0.3554903344140728E-07  0.3495835421541187E-07
  0.3437772674077365E-07  0.3380697585125039E-07  0.3324592950609634E-07  0.3269441873296795E-07  0.3215227757190055E-07
  0.3161934302032987E-07  0.3109545497914044E-07  0.3058045619972367E-07  0.3007419223202155E-07  0.2957651137353998E-07
  0.2908726461931478E-07  0.2860630561280815E-07  0.2813349059772051E-07  0.2766867837070014E-07  0.2721173023493344E-07
  0.2676250995459764E-07  0.2632088371016058E-07  0.2588672005451322E-07  0.2545988986991510E-07  0.2504026632574014E-07
  0.2462772483700804E-07  0.2422214302368389E-07  0.2382340067073239E-07  0.2343137968891475E-07  0.2304596407630936E-07
  0.2266703988054805E-07  0.2229449516174896E-07  0.2192821995613765E-07  0.2156810624033999E-07  0.2121404789633509E-07
  0.2086594067705748E-07  0.2052368217263345E-07  0.2018717177724098E-07  0.1985631065658268E-07  0.1953100171595754E-07
  0.1921114956892194E-07  0.1889666050652867E-07  0.1858744246713300E-07  0.1828340500675424E-07  0.1798445926998296E-07
  0.1769051796142475E-07  0.1740149531766814E-07  0.1711730707976790E-07  0.1683787046623527E-07  0.1656310414652335E-07
  0.1629292821499932E-07  0.1602726416539546E-07  0.1576603486572765E-07  0.1550916453367515E-07  0.1525657871241024E-07
   28     58.693         3.5196    fcc     
  0.0000000000000000E+00 -0.1726695755220531E-01 -0.3445938452399089E-01 -0.5157744356513350E-01 -0.6862129732540811E-01
 -0.8559110845459372E-01 -0.1024870396024644E+00 -0.1193092534187974E+00 -0.1360579125533694E+00 -0.1527331796559568E+00
 -0.1693352173763363E+00 -0.1858641883642842E+00 -0.2023202552695764E+00 -0.2187035807419906E+00 -0.2350143274313026E+00
 -0.2512526579872887E+00 -0.2674187350597257E+00 -0.2835127212983894E+00 -0.2995347793530576E+00 -0.3154850718735061E+00
 -0.3313637615095111E+00 -0.3471710109108490E+00 -0.3629069827272970E+00 -0.3785718396086319E+00 -0.3941657442046291E+00
 -0.4096888591650651E+00 -0.4251413471397167E+00 -0.4405233707783611E+00 -0.4558350927307733E+00 -0.4710766756467313E+00
 -0.4862482821760106E+00 -0.5013500749683883E+00 -0.5163822166736407E+00 -0.5313448699415440E+00 -0.5462381974218746E+00
 -0.5610623617644088E+00 -0.5758175256189237E+00 -0.5905038516351961E+00 -0.6051215024630017E+00 -0.6196706407521178E+00
 -0.6341514291523198E+00 -0.6485640303133855E+00 -0.6629086068850905E+00 -0.6771853215172108E+00 -0.6913943368595237E+00
 -0.7055358155618059E+00 -0.7196099202738331E+00 -0.7336168136453820E+00 -0.7475566583262299E+00 -0.7614296169661525E+00
 -0.7752358522149265E+00 -0.7889755267223280E+00 -0.8026488031381336E+00 -0.8162558441121199E+00 -0.8297968122940642E+00
 -0.8432718703337414E+00 -0.8566811808809294E+00 -0.8700249065854038E+00 -0.8833032100969416E+00 -0.8965162540653195E+00
 -0.9096642011403133E+00 -0.9227472139716995E+00 -0.9357654552092551E+00 -0.9487190875027565E+00 -0.9616082735019797E+00
 -0.9744331758567017E+00 -0.9871939572166983E+00 -0.9998907802317478E+00 -0.1012523807551625E+01 -0.1025093201826106E+01
 -0.1037599125704968E+01 -0.1050041741837988E+01 -0.1062421212874942E+01 -0.1074737701465606E+01 -0.1086991370259757E+01
 -0.1099182381907172E+01 -0.1111310899057627E+01 -0.1123377084360898E+01 -0.1135381100466763E+01 -0.1147323110024996E+01
 -0.1159203275685376E+01 -0.1171021760097678E+01 -0.1182778725911679E+01 -0.1194474335777155E+01 -0.1206108752343883E+01
 -0.1217682138261639E+01 -0.1229194656180201E+01 -0.1240646468749343E+01 -0.1252037738618843E+01 -0.1263368628438478E+01
 -0.1274639300858023E+01 -0.1285849918527256E+01 -0.1297000644095952E+01 -0.1308091640213888E+01 -0.1319123069530841E+01
 -0.1330095094696587E+01 -0.1341007878360903E+01 -0.1351861583173566E+01 -0.1362656371784351E+01 -0.1373392406843035E+01
 -0.1384069850999394E+01 -0.1394688866903206E+01 -0.1405249617204247E+01 -0.1415752264552292E+01 -0.1426196971597119E+01
 -0.1436583900988504E+01 -0.1446913215376224E+01 -0.1457185077410054E+01 -0.1467399649739772E+01 -0.1477557095015154E+01
